{"learner":{"attributes":{"best_iteration":"99","best_ntree_limit":"100","scikit_learn":"{\"use_label_encoder\": null, \"n_estimators\": 100, \"objective\": \"binary:logistic\", \"max_depth\": null, \"max_leaves\": null, \"max_bin\": null, \"grow_policy\": null, \"learning_rate\": 0.11, \"verbosity\": null, \"booster\": null, \"tree_method\": null, \"gamma\": 0.6, \"min_child_weight\": null, \"max_delta_step\": null, \"subsample\": null, \"sampling_method\": null, \"colsample_bytree\": 0.7, \"colsample_bylevel\": null, \"colsample_bynode\": null, \"reg_alpha\": 3.5000000000000004, \"reg_lambda\": null, \"scale_pos_weight\": null, \"base_score\": null, \"missing\": NaN, \"num_parallel_tree\": null, \"random_state\": null, \"n_jobs\": null, \"monotone_constraints\": null, \"interaction_constraints\": null, \"importance_type\": null, \"gpu_id\": null, \"validate_parameters\": null, \"predictor\": null, \"enable_categorical\": false, \"feature_types\": null, \"max_cat_to_onehot\": null, \"max_cat_threshold\": null, \"eval_metric\": null, \"early_stopping_rounds\": null, \"callbacks\": null, \"classes_\": [0, 1], \"n_classes_\": 2, \"_estimator_type\": \"classifier\"}"},"feature_names":["Season","WD","Conductivity","Nitrite","Nitrate","Ammonium","TP","Salinity","Elevation","Dist. To Source (m)","Slope (%)","Prec1","Temp1","Year_2018","Year_2019","Year_2020","Year_2021"],"feature_types":["int","int","float","float","float","float","float","float","int","float","float","float","float","int","int","int","int"],"gradient_booster":{"model":{"gbtree_model_param":{"num_parallel_tree":"1","num_trees":"100","size_leaf_vector":"0"},"tree_info":[0,0,0,0,0,0,0,0,0,0,0,0,0,0,0,0,0,0,0,0,0,0,0,0,0,0,0,0,0,0,0,0,0,0,0,0,0,0,0,0,0,0,0,0,0,0,0,0,0,0,0,0,0,0,0,0,0,0,0,0,0,0,0,0,0,0,0,0,0,0,0,0,0,0,0,0,0,0,0,0,0,0,0,0,0,0,0,0,0,0,0,0,0,0,0,0,0,0,0,0],"trees":[{"base_weights":[-3.4851936E-1,-1.3209877E0,8.1313133E-1,-5.549133E-1,-1.6782334E0,1.7708333E-1,1.3173077E0,-1.3333334E0,-1.6666667E-1,-1.7087379E0,-0E0,-3.1707317E-1,6.4912283E-1,1.4456521E0,-0E0,-1.45E0,-0E0,-7.017544E-1,5.0632913E-2,-0E0,-4.5945945E-1,8.8235295E-1,-1.25E-1,-0E0,1.5460123E0,-0E0,8.3333336E-2,-0E0,-8.4E-1,-4.347826E-2,5.405405E-1,-0E0,-7.058824E-1,-0E0,9.263158E-1,-1.6666667E-1,-0E0,2.1052632E-1,-0E0,1.5822785E0,-0E0,-0E0,3.75E-1,-9.777778E-1,-0E0,-2.9268292E-1,-0E0,7.741935E-1,-0E0,-8.648649E-1,-0E0,-0E0,1.025E0,-0E0,2.6666668E-1,1.6184211E0,-0E0],"categories":[],"categories_nodes":[],"categories_segments":[],"categories_sizes":[],"default_left":[1,1,1,1,1,1,1,1,1,0,0,1,1,1,1,0,0,1,1,0,1,1,1,1,1,1,1,0,1,1,1,0,1,0,1,1,1,1,1,1,0,1,1,0,0,0,0,0,0,1,1,0,0,1,1,0,0],"id":0,"left_children":[1,3,5,7,9,11,13,15,17,-1,-1,19,21,23,-1,-1,-1,27,29,-1,31,33,-1,-1,39,-1,-1,-1,43,45,47,-1,-1,-1,51,-1,-1,-1,-1,55,-1,-1,-1,-1,-1,-1,-1,-1,-1,-1,-1,-1,-1,-1,-1,-1,-1],"loss_changes":[2.5081386E2,2.450444E1,2.6283722E1,7.5987473E0,2.348343E0,1.256454E1,5.9002914E0,1.0249996E0,6.1515102E0,0E0,0E0,1.84443E0,7.9066696E0,1.2629013E0,4.1666668E-2,0E0,0E0,1.8024559E0,2.673809E0,0E0,2.4475355E0,5.260067E-1,2.0833336E-2,2.1052632E-1,1.4936295E0,0E0,5.208333E-1,0E0,1.9355555E0,8.5630965E-1,1.9424584E0,0E0,5.6597805E-1,0E0,6.3355255E-1,0E0,0E0,5.6140363E-2,0E0,6.404953E-1,0E0,0E0,0E0,0E0,0E0,0E0,0E0,0E0,0E0,0E0,0E0,0E0,0E0,0E0,0E0,0E0,0E0],"parents":[2147483647,0,0,1,1,2,2,3,3,4,4,5,5,6,6,7,7,8,8,11,11,12,12,13,13,14,14,17,17,18,18,20,20,21,21,22,22,23,23,24,24,26,26,28,28,29,29,30,30,32,32,34,34,37,37,39,39],"right_children":[2,4,6,8,10,12,14,16,18,-1,-1,20,22,24,-1,-1,-1,28,30,-1,32,34,-1,-1,40,-1,-1,-1,44,46,48,-1,-1,-1,52,-1,-1,-1,-1,56,-1,-1,-1,-1,-1,-1,-1,-1,-1,-1,-1,-1,-1,-1,-1,-1,-1],"split_conditions":[4.1E-2,1.3499999E-1,5E-1,7.5000003E-3,9.5165E2,1.20000005E-1,7.6E-1,3.2E-1,5E-1,-1.8796116E-1,-0E0,2.4315E2,7.6E-1,5.7499997E-2,-0E0,-1.595E-1,-0E0,2.5E0,6.5E-3,-0E0,1.65E1,2.5E0,-1.375E-2,-0E0,3.13E-1,-0E0,9.166667E-3,-0E0,3.1E-2,3.0499998E-2,3.35E-2,-0E0,-7.764706E-2,-0E0,8.5E-3,-1.8333334E-2,-0E0,2.3157895E-2,-0E0,2.97E0,-0E0,-0E0,4.1249998E-2,-1.0755555E-1,-0E0,-3.219512E-2,-0E0,8.516128E-2,-0E0,-9.513514E-2,-0E0,-0E0,1.12749994E-1,-0E0,2.9333334E-2,1.7802632E-1,-0E0],"split_indices":[6,10,0,6,2,6,10,7,0,0,0,2,10,6,8,0,0,8,3,0,8,8,3,3,3,2147483647,2147483647,0,3,6,6,0,11,0,3,2147483647,2147483647,2147483647,2147483647,11,0,2147483647,2147483647,0,0,0,0,0,0,2147483647,2147483647,0,0,2147483647,2147483647,0,0],"split_type":[0,0,0,0,0,0,0,0,0,0,0,0,0,0,0,0,0,0,0,0,0,0,0,0,0,0,0,0,0,0,0,0,0,0,0,0,0,0,0,0,0,0,0,0,0,0,0,0,0,0,0,0,0,0,0,0,0],"sum_hessian":[2.185E2,1.205E2,9.8E1,4.225E1,7.825E1,4.7E1,5.1E1,1.025E1,3.2E1,7.625E1,2E0,1.95E1,2.75E1,4.5E1,6E0,9E0,1.25E0,1.325E1,1.875E1,2E0,1.75E1,2.45E1,3E0,5.25E0,3.975E1,1E0,5E0,1.75E0,1.15E1,1.05E1,8.25E0,5.75E0,1.175E1,1.75E0,2.275E1,2E0,1E0,3.75E0,1.5E0,3.85E1,1.25E0,2E0,3E0,1.025E1,1.25E0,9.25E0,1.25E0,6.75E0,1.5E0,8.25E0,3.5E0,3.75E0,1.9E1,1E0,2.75E0,3.7E1,1.5E0],"tree_param":{"num_deleted":"12","num_feature":"17","num_nodes":"57","size_leaf_vector":"0"}},{"base_weights":[-3.1008187E-1,-1.0306662E0,3.3653158E-1,-1.2627394E0,2.10931E-1,-7.775275E-2,7.978223E-1,-1.4237442E0,-0E0,-0E0,9.220852E-1,-4.2061505E-1,6.699395E-1,7.289262E-2,1.1638895E0,-2.6964733E-1,1.7493555E-1,-5.094872E-1,-0E0,-8.33187E-1,4.6562526E-2,8.667582E-1,-0E0,-1.7861316E-1,9.2709166E-1,-0E0,1.2450943E0,-5.965467E-1,-0E0,-7.2291493E-1,-0E0,-1.0602773E0,-0E0,-0E0,3.537738E-1,-0E0,9.810128E-1,-4.7313803E-1,-0E0,1.026905E0,-0E0,1.3015922E0,-0E0,-0E0,-7.020921E-1,-1.1184412E0,-0E0,-1.9899791E-1,-0E0,-0E0,6.301081E-1,-0E0,-6.6068596E-1,1.3387651E0,-0E0],"categories":[],"categories_nodes":[],"categories_segments":[],"categories_sizes":[],"default_left":[1,1,1,1,1,1,1,0,1,1,0,1,1,1,1,1,0,1,0,1,1,1,0,1,1,0,1,1,0,0,0,1,0,1,1,0,0,1,0,1,1,1,0,1,1,1,1,1,1,0,0,0,0,0,0],"id":1,"left_children":[1,3,5,7,9,11,13,-1,15,17,-1,19,21,23,25,27,-1,29,-1,31,33,35,-1,37,-1,-1,41,-1,-1,-1,-1,-1,-1,-1,49,-1,-1,51,-1,-1,-1,53,-1,-1,-1,-1,-1,-1,-1,-1,-1,-1,-1,-1,-1],"loss_changes":[1.04518684E2,3.451339E1,2.4230846E1,1.6514175E1,5.46144E0,1.391759E1,1.0894653E1,0E0,7.792029E-1,1.7454383E0,0E0,1.1007832E1,2.4647112E0,7.861935E0,4.156822E0,1.4029176E0,0E0,1.1180747E0,0E0,6.697647E0,1.0251178E0,1.1387806E0,0E0,2.4427128E0,3.8579893E-1,0E0,1.8358765E0,1.7384434E-1,0E0,0E0,0E0,3.4179306E-1,0E0,1.876945E-1,1.216652E0,0E0,0E0,1.609607E0,0E0,0E0,0E0,8.57975E-1,0E0,0E0,0E0,0E0,0E0,0E0,0E0,0E0,0E0,0E0,0E0,0E0,0E0],"parents":[2147483647,0,0,1,1,2,2,3,3,4,4,5,5,6,6,8,8,9,9,11,11,12,12,13,13,14,14,15,15,17,17,19,19,20,20,21,21,23,23,24,24,26,26,27,27,31,31,33,33,34,34,37,37,41,41],"right_children":[2,4,6,8,10,12,14,-1,16,18,-1,20,22,24,26,28,-1,30,-1,32,34,36,-1,38,-1,-1,42,-1,-1,-1,-1,-1,-1,-1,50,-1,-1,52,-1,-1,-1,54,-1,-1,-1,-1,-1,-1,-1,-1,-1,-1,-1,-1,-1],"split_conditions":[6.5E-3,1.4397981E5,5E-1,3.45E-1,3.715E2,1.20437984E5,3.7E-2,-1.5661186E-1,3.35E-2,2.5219569E5,1.0142937E-1,4.85E-2,2.1560001E1,9.049656E4,1.6785E1,9.025E2,1.924291E-2,1.65E-2,-0E0,2.305E0,7.345E2,8.5E-3,-0E0,9.0065E2,1.0198008E-1,-0E0,1.425E0,-6.562014E-2,-0E0,-7.952064E-2,-0E0,-1.1663051E-1,-0E0,-0E0,1.255E-1,-0E0,1.0791141E-1,8.5E-3,-0E0,1.1295954E-1,-0E0,3.13E-1,-0E0,-0E0,-7.723013E-2,-1.2302853E-1,-0E0,-2.188977E-2,-0E0,-0E0,6.9311894E-2,-0E0,-7.267545E-2,1.4726417E-1,-0E0],"split_indices":[3,9,0,7,2,9,5,0,5,9,0,3,12,9,12,2,0,5,0,11,2,3,0,2,2,0,11,2,0,0,0,2,0,9,5,0,0,3,0,2147483647,2147483647,3,0,2147483647,2147483647,2147483647,2147483647,2147483647,2147483647,0,0,0,0,0,0],"split_type":[0,0,0,0,0,0,0,0,0,0,0,0,0,0,0,0,0,0,0,0,0,0,0,0,0,0,0,0,0,0,0,0,0,0,0,0,0,0,0,0,0,0,0,0,0,0,0,0,0,0,0,0,0,0,0],"sum_hessian":[2.1735957E2,1.0507884E2,1.1228072E2,9.089173E1,1.4187112E1,5.5594997E1,5.6685722E1,7.943054E1,1.1461188E1,7.9689903E0,6.2181215E0,4.1625633E1,1.3969362E1,2.2630445E1,3.405528E1,7.7219563E0,3.739232E0,5.724159E0,2.2448316E0,2.5667027E1,1.5958609E1,1.1223632E1,2.7457306E0,1.4928478E1,7.701967E0,1.7421184E0,3.231316E1,4.724281E0,2.9976754E0,4.4792957E0,1.244863E0,2.1424995E1,4.2420297E0,8.474109E0,7.4845004E0,1.4981804E0,9.725451E0,1.2181807E1,2.7466714E0,6.4583964E0,1.2435704E0,3.0567554E1,1.7456064E0,1.2390243E0,3.4852564E0,1.9426483E1,1.9985137E0,3.7397397E0,4.734369E0,2.7456357E0,4.738865E0,2.7341125E0,9.447694E0,2.9317554E1,1.25E0],"tree_param":{"num_deleted":"8","num_feature":"17","num_nodes":"55","size_leaf_vector":"0"}},{"base_weights":[-2.7152613E-1,-1.1058308E0,7.0981526E-1,-4.5231694E-1,-1.4085519E0,1.6215268E-1,1.1383946E0,-1.1426007E0,-9.806725E-2,-1.4502623E0,-0E0,-2.2869697E-1,5.611786E-1,-0E0,1.2566848E0,-1.2392272E0,-0E0,-6.3970643E-1,2.2858085E-1,-1.476677E0,-0E0,-4.7338635E-1,-0E0,7.7983356E-1,-9.14268E-2,-7.540254E-1,-0E0,3.891955E-1,-0E0,-7.325518E-1,-0E0,1.11223646E-1,-0E0,-0E0,8.0309194E-1,-8.6698335E-1,-0E0,-0E0,4.5756683E-1,-9.780963E-1,-0E0,8.519627E-1,-0E0],"categories":[],"categories_nodes":[],"categories_segments":[],"categories_sizes":[],"default_left":[1,1,1,1,1,1,1,1,1,1,0,1,1,0,0,0,0,1,1,0,0,1,1,1,0,1,0,1,0,1,0,1,1,0,1,0,0,1,1,0,0,0,0],"id":2,"left_children":[1,3,5,7,9,11,13,15,17,19,-1,21,23,-1,-1,-1,-1,25,27,-1,-1,29,-1,33,-1,35,-1,-1,-1,39,-1,-1,-1,-1,41,-1,-1,-1,-1,-1,-1,-1,-1],"loss_changes":[1.790924E2,1.6414398E1,1.8260292E1,6.0218267E0,5.0485077E0,8.741257E0,8.2187195E0,6.337967E-1,7.380674E0,1.4781952E0,0E0,2.4988952E0,6.526906E0,0E0,0E0,0E0,0E0,1.6537347E0,1.398916E0,0E0,0E0,2.7059083E0,4.3254722E-2,1.3136196E-1,0E0,1.7925472E0,0E0,5.130062E-1,0E0,1.5794649E0,0E0,0E0,0E0,0E0,6.847086E-1,0E0,0E0,0E0,0E0,0E0,0E0,0E0,0E0],"parents":[2147483647,0,0,1,1,2,2,3,3,4,4,5,5,6,6,7,7,8,8,9,9,11,11,12,12,17,17,18,18,21,21,22,22,23,23,25,25,27,27,29,29,34,34],"right_children":[2,4,6,8,10,12,14,16,18,20,-1,22,24,-1,-1,-1,-1,26,28,-1,-1,30,-1,34,-1,36,-1,-1,-1,40,-1,-1,-1,-1,42,-1,-1,-1,-1,-1,-1,-1,-1],"split_conditions":[4.1E-2,1.3499999E-1,5E-1,7.5000003E-3,1.5947003E5,1.20000005E-1,1.8355E1,3.2E-1,1.9735E1,4.7E-1,-0E0,1.5144677E5,7.6E-1,-0E0,1.3823533E-1,-1.3631499E-1,-0E0,2.278781E5,3.35E-2,-1.6243446E-1,-0E0,6.315E2,-0E0,1.453529E4,-1.0056947E-2,1.1E-1,-0E0,4.2811505E-2,-0E0,5E-1,-0E0,1.2234601E-2,-0E0,-0E0,3.9299998E0,-9.536817E-2,-0E0,-0E0,5.0332353E-2,-1.0759059E-1,-0E0,9.371589E-2,-0E0],"split_indices":[6,10,0,6,9,6,12,7,12,7,0,9,10,0,0,0,0,9,6,0,0,2,6,9,0,10,0,9,0,16,0,2147483647,2147483647,0,11,0,0,2147483647,2147483647,0,0,0,0],"split_type":[0,0,0,0,0,0,0,0,0,0,0,0,0,0,0,0,0,0,0,0,0,0,0,0,0,0,0,0,0,0,0,0,0,0,0,0,0,0,0,0,0,0,0],"sum_hessian":[2.1509047E2,1.1811371E2,9.697677E1,4.1841763E1,7.627195E1,4.6763992E1,5.0212776E1,1.0084963E1,3.17568E1,7.429143E1,1.9805223E0,1.9408594E1,2.7355398E1,3.9832652E0,4.622951E1,8.836411E0,1.2485512E0,1.5617227E1,1.6139572E1,7.22998E1,1.9916261E0,1.491431E1,4.494283E0,2.436132E1,2.994077E0,1.3869129E1,1.7480972E0,1.4147538E1,1.9920341E0,1.0688118E1,4.2261925E0,2.4965463E0,1.997737E0,1.2440345E0,2.3117287E1,1.2631767E1,1.2373625E0,1.7383289E0,1.2409209E1,7.2072883E0,3.4808297E0,2.1373117E1,1.7441683E0],"tree_param":{"num_deleted":"4","num_feature":"17","num_nodes":"43","size_leaf_vector":"0"}},{"base_weights":[-2.4888638E-1,-9.2638546E-1,7.659723E-1,-1.0688905E0,-0E0,2.70202E-1,1.1322534E0,-1.1597488E0,-0E0,-6.010414E-2,6.795014E-1,-0E0,5.5782014E-1,1.188672E0,-0E0,-1.247336E0,-0E0,2.0714045E-1,-4.527575E-2,-3.870278E-1,-0E0,-3.2215503E-1,-0E0,-0E0,7.104143E-1,-0E0,1.2143999E0,-4.2798546E-1,8.871304E-2,5.009873E-1,-0E0,-4.9102512E-1,-0E0,-0E0,-5.0670314E-1,-0E0,2.4857256E-1,-0E0,9.127436E-1,4.0171012E-1,-0E0,-6.132329E-1,-0E0,9.64227E-1,-0E0],"categories":[],"categories_nodes":[],"categories_segments":[],"categories_sizes":[],"default_left":[1,1,1,1,1,1,1,1,1,1,0,1,1,1,0,0,1,1,0,1,0,1,1,0,1,1,1,0,1,0,0,1,1,0,1,1,1,0,1,0,0,1,1,1,1],"id":3,"left_children":[1,3,5,7,9,11,13,15,17,19,-1,21,23,-1,-1,-1,27,29,-1,-1,-1,33,-1,-1,37,-1,-1,-1,39,-1,-1,-1,-1,-1,-1,-1,-1,-1,-1,-1,-1,-1,-1,-1,-1],"loss_changes":[1.4726736E2,2.0825378E1,9.945477E0,1.2760193E1,2.7911773E0,5.0184965E0,2.90271E0,8.470749E0,3.0501193E-1,1.14447E0,0E0,1.0565732E0,2.9766417E0,3.927269E-1,0E0,0E0,1.0990437E0,1.1366693E0,0E0,3.617705E-1,0E0,1.1738579E0,2.4535707E-1,0E0,3.2076883E0,0E0,0E0,0E0,6.3241786E-1,0E0,0E0,0E0,0E0,0E0,4.772153E-1,0E0,0E0,0E0,4.9130535E-1,0E0,0E0,0E0,0E0,0E0,0E0],"parents":[2147483647,0,0,1,1,2,2,3,3,4,4,5,5,6,6,7,7,8,8,9,9,11,11,12,12,13,13,16,16,17,17,19,19,21,21,22,22,24,24,28,28,34,34,38,38],"right_children":[2,4,6,8,10,12,14,16,18,20,-1,22,24,-1,-1,-1,28,30,-1,-1,-1,34,-1,-1,38,-1,-1,-1,40,-1,-1,-1,-1,-1,-1,-1,-1,-1,-1,-1,-1,-1,-1,-1,-1],"split_conditions":[6.1499998E-2,1.20437984E5,5E-1,4.45E-1,2.95E-2,3.162889E4,2.925E0,2.7005E1,2.9000002E-1,2.1000001E-1,7.4745156E-2,3.15E-1,1.65E-2,1.3075392E-1,-0E0,-1.3720696E-1,2.6E-2,3.2E1,-4.9803327E-3,-4.2573057E-2,-0E0,1.05000004E-1,-0E0,-0E0,1.18E-1,-0E0,1.33584E-1,-4.70784E-2,2.8035E1,5.5108603E-2,-0E0,-5.4012764E-2,-0E0,-0E0,-5.5737346E-2,-0E0,2.734298E-2,-0E0,1.004018E-1,4.4188112E-2,-0E0,-6.745562E-2,-0E0,1.06064975E-1,-0E0],"split_indices":[6,9,0,7,6,9,11,12,11,7,0,7,5,5,0,0,5,8,0,5,0,7,5,0,6,2147483647,2147483647,0,12,0,0,2147483647,2147483647,0,12,2147483647,2147483647,0,11,0,0,2147483647,2147483647,2147483647,2147483647],"split_type":[0,0,0,0,0,0,0,0,0,0,0,0,0,0,0,0,0,0,0,0,0,0,0,0,0,0,0,0,0,0,0,0,0,0,0,0,0,0,0,0,0,0,0,0,0],"sum_hessian":[2.1133797E2,1.2885376E2,8.2484215E1,1.1476497E2,1.4088783E1,3.9845524E1,4.263869E1,1.0682373E2,7.9412403E0,9.12284E0,4.9659433E0,1.513365E1,2.4711876E1,4.0648884E1,1.9898088E0,9.765719E1,9.16654E0,5.9665303E0,1.97471E0,6.8846045E0,2.2382357E0,9.180514E0,5.9531355E0,3.9613597E0,2.0750515E1,1.4797338E0,3.9169147E1,4.7681346E0,4.398406E0,4.7197227E0,1.2468076E0,5.398893E0,1.4857112E0,1.4932787E0,7.6872354E0,2.9822056E0,2.9709299E0,4.723861E0,1.6026653E1,3.1823084E0,1.2160974E0,6.2001424E0,1.4870932E0,1.4785409E1,1.2412447E0],"tree_param":{"num_deleted":"10","num_feature":"17","num_nodes":"45","size_leaf_vector":"0"}},{"base_weights":[-2.226449E-1,-9.3576664E-1,5.9183407E-1,-3.518043E-1,-1.226574E0,6.982131E-2,8.745839E-1,-6.9650817E-1,-0E0,-1.2448237E0,-0E0,7.4598676E-1,-4.0068093E-1,1.0052788E0,-0E0,-8.484209E-1,-0E0,4.028159E-1,-1.0924861E-1,-0E0,1.1099372E0,-0E0,-4.9041814E-1,-1.412902E-1,-0E0,-9.0418273E-1,-0E0,-2.989757E-1,-0E0,1.173806E0,-0E0,-5.861156E-1,-0E0,-9.6894324E-1,-0E0,-5.279593E-1,-0E0,-6.796632E-1,-0E0],"categories":[],"categories_nodes":[],"categories_segments":[],"categories_sizes":[],"default_left":[1,1,1,1,1,1,1,1,1,0,0,1,1,0,1,1,0,0,1,0,1,0,1,1,1,1,0,1,0,1,1,1,0,0,0,0,0,0,0],"id":4,"left_children":[1,3,5,7,9,11,13,15,17,-1,-1,19,21,-1,-1,25,-1,-1,27,-1,-1,-1,31,-1,-1,33,-1,35,-1,-1,-1,37,-1,-1,-1,-1,-1,-1,-1],"loss_changes":[1.2254602E2,1.3328667E1,1.0714867E1,5.7404766E0,1.0127335E0,1.3900577E1,8.131695E0,4.3093643E0,1.1956564E0,0E0,0E0,7.333255E0,1.2857964E0,0E0,9.881097E-2,6.889267E-1,0E0,0E0,1.0744681E0,0E0,4.6076965E-1,0E0,1.4549274E0,0E0,0E0,7.8126335E-1,0E0,2.0727196E0,0E0,0E0,0E0,1.07973E0,0E0,0E0,0E0,0E0,0E0,0E0,0E0],"parents":[2147483647,0,0,1,1,2,2,3,3,4,4,5,5,6,6,7,7,8,8,11,11,12,12,14,14,15,15,18,18,20,20,22,22,25,25,27,27,31,31],"right_children":[2,4,6,8,10,12,14,16,18,-1,-1,20,22,-1,-1,26,-1,-1,28,-1,-1,-1,32,-1,-1,34,-1,36,-1,-1,-1,38,-1,-1,-1,-1,-1,-1,-1],"split_conditions":[4.1E-2,1.6E-1,1.185E-1,1.85E-2,2.909E1,7.945E-1,7.6E-1,1.05E1,2.32E-1,-1.369306E-1,-0E0,1.9325E1,1.501E1,1.1058067E-1,-0E0,1.1595E0,-0E0,4.430975E-2,2.7244999E1,-0E0,1.2209309E-1,-0E0,8.5E-1,-1.5541922E-2,-0E0,2.776E1,-0E0,1.1E-1,-0E0,1.2911865E-1,-0E0,6.55E-2,-0E0,-1.0658376E-1,-0E0,-5.807552E-2,-0E0,-7.476295E-2,-0E0],"split_indices":[6,10,6,6,12,4,10,1,4,0,0,12,12,0,4,4,0,0,12,0,10,0,10,2147483647,2147483647,12,0,10,0,2147483647,2147483647,3,0,0,0,0,0,0,0],"split_type":[0,0,0,0,0,0,0,0,0,0,0,0,0,0,0,0,0,0,0,0,0,0,0,0,0,0,0,0,0,0,0,0,0,0,0,0,0,0,0],"sum_hessian":[2.0696097E2,1.1255825E2,9.440272E1,4.215438E1,7.040388E1,3.79552E1,5.6447517E1,2.18427E1,2.031168E1,6.897912E1,1.4247522E0,1.8385904E1,1.9569296E1,5.0527676E1,5.919841E0,2.038165E1,1.4610496E0,5.1823277E0,1.5129353E1,4.676473E0,1.3709431E1,1.4927547E0,1.807654E1,3.9497252E0,1.9701158E0,1.866839E1,1.7132592E0,1.3174138E1,1.9552149E0,1.2486668E1,1.2227633E0,1.6590893E1,1.4856472E0,1.6959278E1,1.7091124E0,1.0981358E1,2.1927807E0,1.4419155E1,2.1717384E0],"tree_param":{"num_deleted":"4","num_feature":"17","num_nodes":"39","size_leaf_vector":"0"}},{"base_weights":[-2.0169649E-1,-8.6498106E-1,5.3113353E-1,-1.3128382E0,-4.614563E-1,7.9483636E-2,8.8885546E-1,-1.3420377E0,-0E0,-7.8491867E-1,7.259077E-2,-1.3549288E-1,3.7662894E-1,-0E0,9.941274E-1,-8.4561765E-1,-0E0,5.2872574E-1,-0E0,-3.7309137E-1,-0E0,-3.7978563E-1,6.294015E-1,1.2328081E0,1.7271625E-1,-0E0,6.7060447E-1,-0E0,-2.7816328E-1,-0E0,-5.8699065E-1,6.792629E-1,-0E0,-0E0,1.2787282E0,-0E0,4.7323573E-1,-0E0,8.826914E-1,-0E0,1.38546E-1,-0E0,-3.514577E-1,-0E0,-7.770949E-1,7.477022E-1,-0E0,1.3215653E0,-0E0,6.4343363E-1,-0E0],"categories":[],"categories_nodes":[],"categories_segments":[],"categories_sizes":[],"default_left":[1,1,1,1,1,1,1,0,0,1,1,1,1,0,1,0,0,1,1,1,0,0,1,1,1,0,1,1,1,0,1,1,0,0,1,0,1,0,0,1,1,1,1,0,0,1,1,1,1,0,0],"id":5,"left_children":[1,3,5,7,9,11,13,-1,-1,15,17,19,21,-1,23,-1,-1,25,-1,29,-1,-1,31,33,35,-1,37,-1,-1,-1,43,-1,-1,-1,-1,-1,49,-1,-1,-1,-1,-1,-1,-1,-1,-1,-1,-1,-1,-1,-1],"loss_changes":[1.0034567E2,1.2971634E1,1.1824234E1,1.4575653E0,1.3476095E1,3.912242E0,5.7014694E0,0E0,0E0,2.0082893E0,2.0993226E0,1.7563229E0,6.261033E0,0E0,3.5793724E0,0E0,0E0,7.246804E-1,4.791943E-1,2.5809731E0,0E0,0E0,6.5222263E-1,1.272583E0,2.206496E0,0E0,1.08602E0,8.9778796E-2,1.2078491E-1,0E0,2.8196E0,2.4796486E-1,0E0,0E0,3.1763458E-1,0E0,9.137981E-1,0E0,0E0,0E0,0E0,0E0,0E0,0E0,0E0,0E0,0E0,0E0,0E0,0E0,0E0],"parents":[2147483647,0,0,1,1,2,2,3,3,4,4,5,5,6,6,9,9,10,10,11,11,12,12,14,14,17,17,18,18,19,19,22,22,23,23,24,24,26,26,27,27,28,28,30,30,31,31,34,34,36,36],"right_children":[2,4,6,8,10,12,14,-1,-1,16,18,20,22,-1,24,-1,-1,26,-1,30,-1,-1,32,34,36,-1,38,-1,-1,-1,44,-1,-1,-1,-1,-1,50,-1,-1,-1,-1,-1,-1,-1,-1,-1,-1,-1,-1,-1,-1],"split_conditions":[3.9499998E-2,7.5000003E-3,5E-1,4.45E-1,2.3135E1,8.5E0,1.8355E1,-1.4762415E-1,-0E0,4.5499998E-1,4.565E-1,3.15E-1,6.35E-2,-0E0,1.5780001E0,-9.301794E-2,-0E0,5.5E0,-0E0,3.17E-1,-0E0,-4.177642E-2,5.4499996E-1,1.14999995E-1,1.185E-1,-0E0,1.85E-2,-0E0,-3.059796E-2,-0E0,4.8E-2,7.4718915E-2,-0E0,-0E0,1.406601E-1,-0E0,5E-1,-0E0,9.709605E-2,-0E0,1.524006E-2,-0E0,-3.8660344E-2,-0E0,-8.548044E-2,8.224724E-2,-0E0,1.4537218E-1,-0E0,7.07777E-2,-0E0],"split_indices":[6,6,0,7,12,1,12,0,0,7,4,7,6,0,4,0,0,1,10,4,0,0,10,7,6,0,4,2147483647,2147483647,0,6,12,0,0,10,0,14,0,0,2147483647,2147483647,2147483647,2147483647,0,0,2147483647,2147483647,2147483647,2147483647,0,0],"split_type":[0,0,0,0,0,0,0,0,0,0,0,0,0,0,0,0,0,0,0,0,0,0,0,0,0,0,0,0,0,0,0,0,0,0,0,0,0,0,0,0,0,0,0,0,0,0,0,0,0,0,0],"sum_hessian":[2.0209174E2,1.0849162E2,9.360011E1,4.6242172E1,6.2249454E1,4.623341E1,4.7366707E1,4.5018063E1,1.2241096E0,4.2557278E1,1.9692179E1,2.0307068E1,2.5926342E1,3.9320803E0,4.3434628E1,3.933709E1,3.2201872E0,6.8996654E0,1.2792513E1,1.4427646E1,5.8794217E0,2.8998137E0,2.3026527E1,2.9965601E1,1.3469026E1,1.3776034E0,5.522062E0,7.5993567E0,5.193156E0,1.7043889E0,1.2723257E1,2.1042225E1,1.9843022E0,1.4057966E0,2.8559805E1,2.689183E0,1.0779842E1,1.3637621E0,4.1583E0,3.9221587E0,3.677198E0,1.3359092E0,3.8572466E0,1.2239168E0,1.149934E1,1.763527E1,3.4069571E0,2.685643E1,1.7033741E0,7.579371E0,3.2004712E0],"tree_param":{"num_deleted":"10","num_feature":"17","num_nodes":"51","size_leaf_vector":"0"}},{"base_weights":[-1.8293548E-1,-6.9749826E-1,2.4026349E-1,-1.0106248E0,-0E0,-3.4346756E-2,5.823345E-1,-0E0,-1.1594704E0,-6.2135226E-1,4.3146884E-1,-2.885859E-1,4.4021857E-1,4.2882178E-2,8.263326E-1,-1.8568282E-1,-0E0,-0E0,-7.492792E-1,-0E0,7.047239E-1,-4.839785E-1,1.5070741E-1,-0E0,5.995795E-1,-2.4903875E-3,5.680221E-1,9.6919364E-1,-0E0,-3.1507674E-1,-0E0,-8.0990195E-1,-0E0,9.646597E-1,-0E0,-0E0,-5.748309E-1,5.1272774E-1,-0E0,-0E0,7.947812E-1,-2.4704403E-1,-0E0,-0E0,1.0152609E0,-0E0,8.2570784E-2,-0E0,-3.7255675E-1,-6.676534E-1,-0E0,-0E0,-7.9735976E-1,1.50818E-1,-0E0],"categories":[],"categories_nodes":[],"categories_segments":[],"categories_sizes":[],"default_left":[1,1,1,1,1,1,1,1,0,1,1,1,1,1,1,1,1,0,1,0,1,1,1,0,1,1,0,1,1,1,1,1,1,0,0,0,1,0,0,0,0,1,1,1,1,1,1,1,1,0,0,0,0,1,1],"id":6,"left_children":[1,3,5,7,9,11,13,-1,-1,17,19,21,23,25,27,-1,-1,-1,-1,-1,33,35,37,-1,39,41,-1,-1,-1,-1,-1,-1,-1,-1,-1,-1,49,-1,-1,-1,-1,51,-1,-1,-1,-1,-1,-1,-1,-1,-1,-1,-1,-1,-1],"loss_changes":[4.487749E1,1.9010155E1,1.1861212E1,5.842087E0,8.906875E0,6.0954165E0,3.8684845E0,3.405343E-1,0E0,8.594413E-1,3.51043E0,4.714107E0,1.3267326E0,2.5039573E0,1.0780067E0,4.9396327E-1,0E0,0E0,8.879137E-2,0E0,2.9717202E0,2.2803206E0,1.2216809E0,0E0,9.637866E-1,6.500085E-1,0E0,4.1306114E-1,2.7062459E-2,1.710527E-1,0E0,0E0,0E0,0E0,0E0,0E0,1.5907803E0,0E0,0E0,0E0,0E0,2.4288826E0,9.887436E-2,0E0,0E0,0E0,0E0,0E0,0E0,0E0,0E0,0E0,0E0,0E0,0E0],"parents":[2147483647,0,0,1,1,2,2,3,3,4,4,5,5,6,6,7,7,9,9,10,10,11,11,12,12,13,13,14,14,15,15,18,18,20,20,21,21,22,22,24,24,25,25,27,27,28,28,29,29,36,36,41,41,42,42],"right_children":[2,4,6,8,10,12,14,-1,-1,18,20,22,24,26,28,-1,-1,-1,-1,-1,34,36,38,-1,40,42,-1,-1,-1,-1,-1,-1,-1,-1,-1,-1,50,-1,-1,-1,-1,52,-1,-1,-1,-1,-1,-1,-1,-1,-1,-1,-1,-1,-1],"split_conditions":[6.5E-3,8.5E0,5E-1,5.5E0,4.138816E4,1.20437984E5,3.7E-2,-0E0,-1.2754175E-1,9.5E0,1.3499999E-1,3.7199998E-1,1.45E-2,9.049656E4,5E-1,-2.042511E-2,-0E0,-0E0,-8.2420714E-2,-0E0,4.5E-3,1.24845E4,5E-1,-0E0,1.25E-1,1.205E2,6.2482428E-2,1.066113E-1,-0E0,-3.465844E-2,-0E0,-8.9089215E-2,-0E0,1.0611256E-1,-0E0,-0E0,4.7500002E-1,5.640005E-2,-0E0,-0E0,8.742593E-2,4.75E1,-0E0,-0E0,1.11678705E-1,-0E0,9.082786E-3,-0E0,-4.098124E-2,-7.344187E-2,-0E0,-0E0,-8.7709576E-2,1.658998E-2,-0E0],"split_indices":[3,1,0,8,9,9,5,5,0,1,7,5,5,9,13,2147483647,2147483647,0,14,0,3,9,16,0,7,8,0,7,1,2147483647,2147483647,2147483647,2147483647,0,0,0,7,0,0,0,0,8,9,2147483647,2147483647,2147483647,2147483647,2147483647,2147483647,0,0,0,0,2147483647,2147483647],"split_type":[0,0,0,0,0,0,0,0,0,0,0,0,0,0,0,0,0,0,0,0,0,0,0,0,0,0,0,0,0,0,0,0,0,0,0,0,0,0,0,0,0,0,0,0,0,0,0,0,0,0,0,0,0,0,0],"sum_hessian":[1.969661E2,9.2327866E1,1.0463822E2,6.2067257E1,3.0260612E1,5.286593E1,5.1772293E1,1.0807438E1,5.125982E1,1.3511625E1,1.6748987E1,3.948153E1,1.3384398E1,2.0957575E1,3.0814718E1,8.876826E0,1.9306115E0,3.0013874E0,1.0510239E1,4.0273075E0,1.2721679E1,3.2770992E1,6.7105393E0,2.9396987E0,1.0444699E1,1.40721E1,6.885475E0,2.327449E1,7.5402284E0,7.4060583E0,1.4707679E0,8.986964E0,1.523274E0,9.51658E0,3.205099E0,2.9303908E0,2.9840601E1,4.313286E0,2.3972535E0,3.4056156E0,7.039084E0,9.65204E0,4.4200606E0,1.7521877E0,2.1522303E1,4.5709243E0,2.9693046E0,1.1613835E0,6.244675E0,2.5429985E1,4.410616E0,5.809213E0,3.842826E0,3.3468761E0,1.0731843E0],"tree_param":{"num_deleted":"14","num_feature":"17","num_nodes":"55","size_leaf_vector":"0"}},{"base_weights":[-1.6275242E-1,-7.5855356E-1,4.798254E-1,-1.1949382E0,-3.8579524E-1,7.565305E-2,7.993467E-1,-1.2248173E0,-0E0,-7.306632E-1,-0E0,-8.552391E-2,3.342323E-1,2.410637E-1,1.0355346E0,-1.2585409E0,-0E0,-8.349521E-1,-0E0,-3.2690495E-1,3.0548277E-1,-3.678794E-1,-0E0,-2.247727E-1,5.535921E-1,-0E0,5.6876904E-1,1.089832E0,-0E0,-0E0,-9.08899E-1,-4.9776626E-1,-0E0,-0E0,5.4861677E-1,-6.5297073E-1,-0E0,4.5278978E-2,-0E0,-0E0,6.551876E-1,-0E0,-2.4396415E-1,-0E0,7.062142E-1,-0E0,1.1351184E0,-0E0,-5.946939E-1,-0E0,7.0594573E-1,-7.574638E-1,-0E0,-3.9897776E-1,-0E0,-0E0,8.0139405E-1],"categories":[],"categories_nodes":[],"categories_segments":[],"categories_sizes":[],"default_left":[1,1,1,1,1,1,1,1,0,1,1,1,1,1,1,0,0,1,0,1,1,1,1,0,1,1,1,1,0,0,0,1,0,0,1,1,0,1,1,0,0,1,1,0,1,0,0,0,0,0,0,0,0,1,1,0,0],"id":7,"left_children":[1,3,5,7,9,11,13,15,-1,17,19,21,23,25,27,-1,-1,29,-1,31,33,35,-1,-1,39,-1,43,45,-1,-1,-1,47,-1,-1,49,51,-1,-1,-1,-1,-1,-1,-1,-1,55,-1,-1,-1,-1,-1,-1,-1,-1,-1,-1,-1,-1],"loss_changes":[7.546298E1,1.0870907E1,8.620512E0,1.2957878E0,5.776393E0,2.8199542E0,1.3273754E0,9.30954E-1,0E0,2.2149935E0,3.6355758E0,1.7742748E0,4.4928617E0,3.0618742E0,1.6442318E0,0E0,0E0,2.013834E0,0E0,2.0434072E0,1.904614E0,3.0985298E0,1.1558025E-2,0E0,1.9542646E0,3.381395E-1,1.5057049E0,1.1038513E0,0E0,0E0,0E0,1.4432468E0,0E0,0E0,1.489331E0,9.055691E-1,0E0,0E0,0E0,0E0,0E0,0E0,2.920958E-1,0E0,9.0257263E-1,0E0,0E0,0E0,0E0,0E0,0E0,0E0,0E0,0E0,0E0,0E0,0E0],"parents":[2147483647,0,0,1,1,2,2,3,3,4,4,5,5,6,6,7,7,9,9,10,10,11,11,12,12,13,13,14,14,17,17,19,19,20,20,21,21,22,22,24,24,25,25,26,26,27,27,31,31,34,34,35,35,42,42,44,44],"right_children":[2,4,6,8,10,12,14,16,-1,18,20,22,24,26,28,-1,-1,30,-1,32,34,36,-1,-1,40,-1,44,46,-1,-1,-1,48,-1,-1,50,52,-1,-1,-1,-1,-1,-1,-1,-1,56,-1,-1,-1,-1,-1,-1,-1,-1,-1,-1,-1,-1],"split_conditions":[4.1E-2,7.5000003E-3,5E-1,9.6965E2,5E-1,8.5E0,3.1934121E4,2.1696733E5,-0E0,1.148927E5,2.55E-2,6.425E2,6.35E-2,3.7E-2,1.7375E0,-1.3843949E-1,-0E0,2E0,-0E0,9.049656E4,4.060479E4,1.9432666E5,-0E0,-2.4724998E-2,1.05E-2,-0E0,3.905E2,4.45E-2,-0E0,-0E0,-9.9978894E-2,2.94E2,-0E0,-0E0,4.295E2,5.31E2,-0E0,4.9806875E-3,-0E0,-0E0,7.2070636E-2,-0E0,-2.6836056E-2,-0E0,8.4E-2,-0E0,1.2486302E-1,-0E0,-6.541633E-2,-0E0,7.765403E-2,-8.332102E-2,-0E0,-4.3887552E-2,-0E0,-0E0,8.815335E-2],"split_indices":[6,6,0,2,0,1,9,9,0,9,5,2,6,5,5,0,0,8,0,9,9,9,2,0,5,9,2,6,0,0,0,2,0,0,2,8,0,2147483647,2147483647,0,0,2147483647,2147483647,0,6,0,0,0,0,0,0,0,0,2147483647,2147483647,0,0],"split_type":[0,0,0,0,0,0,0,0,0,0,0,0,0,0,0,0,0,0,0,0,0,0,0,0,0,0,0,0,0,0,0,0,0,0,0,0,0,0,0,0,0,0,0,0,0,0,0,0,0,0,0,0,0,0,0,0,0],"sum_hessian":[1.9261038E2,1.0267551E2,8.993488E1,4.195917E1,6.0716335E1,4.5089912E1,4.4844967E1,4.0752533E1,1.2066358E0,2.7025854E1,3.3690483E1,1.98505E1,2.523941E1,1.8338106E1,2.6506863E1,3.913268E1,1.6198559E0,2.3639236E1,3.3866181E0,2.1510298E1,1.2180184E1,1.3237108E1,6.613393E0,2.609444E0,2.2629967E1,6.3994102E0,1.1938696E1,2.5218603E1,1.2882596E0,1.4083735E0,2.2230864E1,1.6956127E1,4.554171E0,2.7656007E0,9.414584E0,1.078625E1,2.4508579E0,4.637551E0,1.975842E0,2.2075834E0,2.0422384E1,1.7181606E0,4.6812496E0,1.5272037E0,1.0411492E1,1.1935937E0,2.402501E1,1.2953669E0,1.566076E1,1.1363072E0,8.278276E0,9.337023E0,1.4492273E0,2.9591815E0,1.7220682E0,1.1443024E0,9.26719E0],"tree_param":{"num_deleted":"6","num_feature":"17","num_nodes":"57","size_leaf_vector":"0"}},{"base_weights":[-1.4928527E-1,-6.410259E-1,5.3297955E-1,-1.1393459E0,-3.0938208E-1,6.770193E-2,7.5772655E-1,-1.1704394E0,-0E0,-6.137183E-1,1.2915933E-1,-2.1928206E-2,4.279854E-1,8.445316E-1,-0E0,-1.2040544E0,-0E0,-7.6050943E-1,-0E0,-2.7511721E-2,7.095401E-1,-2.5509986E-1,-0E0,-0E0,5.8226675E-1,-0E0,9.4034326E-1,-8.354137E-1,-0E0,-0E0,2.396362E-3,-0E0,-3.1969774E-1,-0E0,8.300225E-1,-0E0,-5.096121E-1,-0E0,2.4355552E-1,-0E0,6.632771E-1,-0E0,9.841033E-1,-0E0,-8.9872783E-1,-0E0,1.0402602E-2,-0E0,3.671474E-1,-5.6570446E-1,-0E0,-7.0019084E-1,-0E0,-0E0,-1.525575E-1,3.016397E-1,-0E0,-0E0,1.0273721E0],"categories":[],"categories_nodes":[],"categories_segments":[],"categories_sizes":[],"default_left":[1,1,1,1,1,1,1,1,0,1,1,1,1,1,0,0,0,1,1,1,1,1,1,0,1,0,1,1,0,1,1,1,1,1,1,0,1,1,1,1,1,0,1,1,1,1,1,0,0,0,0,0,0,1,1,1,1,1,1],"id":8,"left_children":[1,3,5,7,9,11,13,15,-1,17,19,21,23,25,-1,-1,-1,27,-1,31,-1,35,-1,-1,-1,-1,41,-1,-1,-1,-1,47,49,-1,-1,-1,51,-1,-1,-1,-1,-1,-1,-1,-1,-1,-1,-1,-1,-1,-1,-1,-1,-1,-1,-1,-1,-1,-1],"loss_changes":[6.3810314E1,1.3205517E1,5.0416317E0,1.2752724E0,1.1553857E1,2.432682E0,1.6498203E0,7.8544617E-1,0E0,4.9692936E0,4.782642E0,6.3383013E-1,1.5106151E0,2.5712986E0,0E0,0E0,0E0,2.7156887E0,2.7893111E-5,1.0636853E0,4.879141E-1,1.4722276E0,3.4462312E-1,0E0,5.5893135E-1,0E0,1.0961342E0,1.1004448E-1,0E0,0E0,3.7068382E-4,6.382684E-1,1.5888733E0,0E0,0E0,0E0,1.2996912E0,7.356146E-2,5.1090658E-2,0E0,0E0,0E0,1.9836617E-1,0E0,0E0,0E0,0E0,0E0,0E0,0E0,0E0,0E0,0E0,0E0,0E0,0E0,0E0,0E0,0E0],"parents":[2147483647,0,0,1,1,2,2,3,3,4,4,5,5,6,6,7,7,9,9,10,10,11,11,12,12,13,13,17,17,18,18,19,19,20,20,21,21,22,22,24,24,26,26,27,27,30,30,31,31,32,32,36,36,37,37,38,38,42,42],"right_children":[2,4,6,8,10,12,14,16,-1,18,20,22,24,26,-1,-1,-1,28,-1,32,-1,36,-1,-1,-1,-1,42,-1,-1,-1,-1,48,50,-1,-1,-1,52,-1,-1,-1,-1,-1,-1,-1,-1,-1,-1,-1,-1,-1,-1,-1,-1,-1,-1,-1,-1,-1,-1],"split_conditions":[6.1499998E-2,7.5000003E-3,3.162889E4,4.45E-1,2.3135E1,6.04E2,2.035E0,2.1696733E5,-0E0,1.11450984E5,6.281833E4,2.1015E1,1.6E-2,1.617E1,-0E0,-1.3244598E-1,-0E0,9.58E2,-0E0,4.62E2,7.8049414E-2,2.8865E2,-0E0,-0E0,6.404934E-2,-0E0,2.5315E2,-9.1895506E-2,-0E0,-0E0,2.635998E-4,3.8033002E2,9.54E2,-0E0,9.130248E-2,-0E0,2.1565E0,-0E0,2.6791107E-2,-0E0,7.296048E-2,-0E0,1.0825136E-1,-0E0,-9.886006E-2,-0E0,1.1442862E-3,-0E0,4.038621E-2,-6.222749E-2,-0E0,-7.7020995E-2,-0E0,-0E0,-1.6781326E-2,3.3180367E-2,-0E0,-0E0,1.13010935E-1],"split_indices":[6,6,9,7,12,2,4,9,0,9,9,12,5,12,0,0,0,2,2,2,2,2,5,0,6,0,2,4,0,2147483647,2147483647,2,2,2147483647,2147483647,0,4,2147483647,2147483647,2147483647,2147483647,0,5,2147483647,2147483647,2147483647,2147483647,0,0,0,0,0,0,2147483647,2147483647,2147483647,2147483647,2147483647,2147483647],"split_type":[0,0,0,0,0,0,0,0,0,0,0,0,0,0,0,0,0,0,0,0,0,0,0,0,0,0,0,0,0,0,0,0,0,0,0,0,0,0,0,0,0,0,0,0,0,0,0,0,0,0,0,0,0,0,0,0,0,0,0],"sum_hessian":[1.8705066E2,1.1171952E2,7.533115E1,3.9451584E1,7.226794E1,3.0032112E1,4.529903E1,3.826179E1,1.1897931E0,4.7137386E1,2.513055E1,1.7021997E1,1.3010114E1,3.8583645E1,6.7153864E0,3.6641937E1,1.6198559E0,3.8939938E1,8.197448E0,1.5790148E1,9.340402E0,8.873018E0,8.14898E0,1.9851788E0,1.1024935E1,4.7475195E0,3.3836124E1,3.599003E1,2.94991E0,4.3401794E0,3.8572688E0,6.258605E0,9.531543E0,2.075847E0,7.2645555E0,1.7302115E0,7.1428065E0,3.3393507E0,4.8096294E0,1.4875057E0,9.537429E0,1.8973972E0,3.1938728E1,4.8919673E0,3.109806E1,1.1740445E0,2.6832242E0,2.523578E0,3.735027E0,7.328399E0,2.2031436E0,5.964395E0,1.1784112E0,1.1786515E0,2.1606994E0,3.349148E0,1.4604815E0,2.5281274E0,2.94106E1],"tree_param":{"num_deleted":"18","num_feature":"17","num_nodes":"59","size_leaf_vector":"0"}},{"base_weights":[-1.3239168E-1,-5.7455313E-1,2.0281364E-1,-8.500081E-1,-0E0,-4.2752674E-4,4.634264E-1,-0E0,-9.946884E-1,-3.9914343E-1,5.1200163E-1,-3.5569072E-1,2.5747052E-1,-0E0,5.590596E-1,-1.0666401E-1,-0E0,-1.0236765E0,-0E0,-5.2787346E-1,-0E0,-0E0,9.364592E-1,-5.0941193E-1,-0E0,4.7642025E-1,-0E0,6.0437155E-1,-0E0,-2.2197789E-1,-0E0,-6.670136E-1,-0E0,-6.380339E-1,-0E0,-0E0,6.044107E-1,-0E0,-1.0027021E-1,-0E0,6.8674797E-1,-2.956512E-1,-0E0,-0E0,-7.529574E-1,-7.83197E-1,-0E0,-0E0,6.6052216E-1,-0E0,2.0285523E-2,7.776051E-1,-0E0],"categories":[],"categories_nodes":[],"categories_segments":[],"categories_sizes":[],"default_left":[1,1,1,1,1,1,1,1,1,1,1,1,1,0,1,1,1,0,0,1,0,0,0,1,0,1,1,1,0,1,1,1,0,1,0,0,1,1,1,0,1,1,1,0,0,0,0,1,1,1,1,0,0],"id":9,"left_children":[1,3,5,7,9,11,13,-1,17,19,21,23,25,-1,27,-1,-1,-1,-1,31,-1,-1,-1,33,-1,35,-1,39,-1,-1,-1,43,-1,45,-1,-1,-1,-1,-1,-1,51,-1,-1,-1,-1,-1,-1,-1,-1,-1,-1,-1,-1],"loss_changes":[2.8503838E1,1.24272785E1,6.927146E0,4.5121384E0,6.06275E0,4.992706E0,3.1171904E0,1.0817938E-1,1.2700768E0,1.7682953E0,5.5711994E0,2.6220653E0,1.7818928E0,0E0,1.2902107E0,2.8855598E-1,0E0,0E0,0E0,2.217925E0,0E0,0E0,0E0,2.7558513E0,0E0,1.4288354E0,3.5290547E-2,1.3862448E0,0E0,2.0217371E-1,0E0,8.2700634E-1,0E0,2.6667624E0,0E0,0E0,2.7384758E-2,2.5697134E-3,0E0,0E0,2.0362854E0,0E0,0E0,0E0,0E0,0E0,0E0,0E0,0E0,0E0,0E0,0E0,0E0],"parents":[2147483647,0,0,1,1,2,2,3,3,4,4,5,5,6,6,7,7,8,8,9,9,10,10,11,11,12,12,14,14,15,15,19,19,23,23,25,25,26,26,27,27,29,29,31,31,33,33,36,36,37,37,40,40],"right_children":[2,4,6,8,10,12,14,-1,18,20,22,24,26,-1,28,-1,-1,-1,-1,32,-1,-1,-1,34,-1,36,-1,40,-1,-1,-1,44,-1,46,-1,-1,-1,-1,-1,-1,52,-1,-1,-1,-1,-1,-1,-1,-1,-1,-1,-1,-1],"split_conditions":[6.5E-3,8.5E0,7.5E0,5.5E0,2.2279999E1,2.166E1,1.45E-2,-0E0,2.893E1,3.75E-1,2.9440129E4,4E-1,5.5E0,-0E0,6.05E-1,-1.1733041E-2,-0E0,-1.1260442E-1,-0E0,2.5219569E5,-0E0,-0E0,1.0301051E-1,1.948317E5,-0E0,1.2E-1,-0E0,2.6714496E4,-0E0,-2.4417568E-2,-0E0,4E-4,-0E0,4.7E-1,-0E0,-0E0,6.6485174E-2,-0E0,-1.1029723E-2,-0E0,1E2,-3.252163E-2,-0E0,-0E0,-8.282531E-2,-8.615167E-2,-0E0,-0E0,7.2657436E-2,-0E0,2.2314074E-3,8.553656E-2,-0E0],"split_indices":[3,1,1,8,12,12,5,5,12,7,9,5,1,0,7,2147483647,2147483647,0,0,9,0,0,0,9,0,7,10,9,0,2147483647,2147483647,3,0,7,0,0,5,2147483647,2147483647,0,8,2147483647,2147483647,0,0,0,0,2147483647,2147483647,2147483647,2147483647,0,0],"split_type":[0,0,0,0,0,0,0,0,0,0,0,0,0,0,0,0,0,0,0,0,0,0,0,0,0,0,0,0,0,0,0,0,0,0,0,0,0,0,0,0,0,0,0,0,0,0,0,0,0,0,0,0,0],"sum_hessian":[1.8174971E2,8.256607E1,9.918364E1,5.438079E1,2.8185278E1,4.874101E1,5.0442627E1,1.0378471E1,4.400232E1,1.6992678E1,1.1192598E1,2.6049295E1,2.2691713E1,6.12084E0,4.432179E1,8.508426E0,1.8700454E0,4.2701683E1,1.3006346E0,1.5633057E1,1.3596216E0,2.1950188E0,8.99758E0,2.2291788E1,3.7575064E0,1.3770009E1,8.921704E0,4.131292E1,3.0088673E0,7.0515866E0,1.4568393E0,1.4402615E1,1.2304422E0,2.0617186E1,1.6746025E0,1.6818175E0,1.2088192E1,6.4116445E0,2.51006E0,6.602871E0,3.471005E1,5.851752E0,1.1998346E0,1.8567841E0,1.2545831E1,1.7693985E1,2.9232004E0,2.0664706E0,1.0021721E1,1.1669338E0,5.2447104E0,3.022028E1,4.48977E0],"tree_param":{"num_deleted":"12","num_feature":"17","num_nodes":"53","size_leaf_vector":"0"}},{"base_weights":[-1.1907966E-1,-6.3973624E-1,3.9765108E-1,-1.537062E-1,-9.07649E-1,4.5873225E-2,6.776931E-1,-4.276911E-1,-0E0,-9.520257E-1,-0E0,-4.2139724E-2,2.4447586E-1,-0E0,7.744872E-1,-6.7686075E-1,-0E0,-0E0,2.1017617E-1,-9.8011446E-1,-0E0,-0E0,-4.3188313E-1,4.1630277E-1,-0E0,8.039748E-1,-0E0,-3.0544996E-2,-0E0,-8.708901E-2,-0E0,4.8099118E-1,-0E0,-1.016784E0,-0E0,1.11009665E-1,-0E0,-0E0,5.403279E-1,-0E0,8.267109E-1,-1.9610077E-1,-0E0,-0E0,-1.4883088E-1,-0E0,5.749766E-1,1.9807903E-1,-0E0,-0E0,-1.9125125E-1,-0E0,6.0203385E-1],"categories":[],"categories_nodes":[],"categories_segments":[],"categories_sizes":[],"default_left":[1,1,1,1,1,1,1,1,1,1,0,1,1,0,1,0,1,1,1,1,0,1,0,1,0,1,0,1,1,1,1,1,0,1,1,1,1,0,1,1,1,1,1,1,1,1,1,1,1,1,1,0,0],"id":10,"left_children":[1,3,5,7,9,11,13,15,17,19,-1,21,23,-1,25,-1,-1,-1,31,-1,-1,-1,-1,37,-1,-1,-1,-1,-1,-1,-1,-1,-1,-1,-1,-1,-1,-1,51,-1,-1,-1,-1,-1,-1,-1,-1,-1,-1,-1,-1,-1,-1],"loss_changes":[4.912805E1,8.213257E0,5.990862E0,2.7481713E0,2.813179E0,1.5068175E0,3.713171E0,1.7020993E0,5.051141E-1,6.2366104E-1,0E0,9.244814E-1,2.4731662E0,0E0,1.0750561E0,0E0,5.183404E-3,6.1583646E-2,1.4753789E0,1.4315033E-1,0E0,7.4451685E-2,0E0,2.067872E0,0E0,3.9468956E-1,0E0,1.6369136E-1,0E0,6.398729E-2,0E0,4.5215738E-1,0E0,0E0,0E0,1.15073726E-1,3.098921E-1,0E0,8.835783E-1,0E0,0E0,0E0,0E0,0E0,0E0,0E0,0E0,0E0,0E0,0E0,0E0,0E0,0E0],"parents":[2147483647,0,0,1,1,2,2,3,3,4,4,5,5,6,6,7,7,8,8,9,9,11,11,12,12,14,14,16,16,17,17,18,18,19,19,21,21,23,23,25,25,27,27,29,29,31,31,35,35,36,36,38,38],"right_children":[2,4,6,8,10,12,14,16,18,20,-1,22,24,-1,26,-1,-1,-1,32,-1,-1,-1,-1,38,-1,-1,-1,-1,-1,-1,-1,-1,-1,-1,-1,-1,-1,-1,52,-1,-1,-1,-1,-1,-1,-1,-1,-1,-1,-1,-1,-1,-1],"split_conditions":[3.9499998E-2,1.6E-1,5E-1,1.85E-2,1.5947003E5,1.20000005E-1,1.8355E1,5.315E2,1.9735E1,2.799E1,-0E0,9.45E-2,7.6E-1,-0E0,3.13E-1,-7.445468E-2,-0E0,-0E0,1.5000001E-2,-1.0781259E-1,-0E0,-0E0,-4.7507145E-2,1.5500001E-2,-0E0,8.843723E-2,-0E0,-3.3599497E-3,-0E0,-9.579791E-3,-0E0,5.290903E-2,-0E0,-1.1184623E-1,-0E0,1.2211063E-2,-0E0,-0E0,2.5E0,-0E0,9.0938196E-2,-2.1571085E-2,-0E0,-0E0,-1.6371395E-2,-0E0,6.324743E-2,2.1788694E-2,-0E0,-0E0,-2.1037636E-2,-0E0,6.6223726E-2],"split_indices":[6,10,0,6,9,6,12,2,12,12,0,5,10,0,3,0,9,3,3,9,0,8,0,5,0,5,0,2147483647,2147483647,2147483647,2147483647,9,0,2147483647,2147483647,2147483647,2147483647,0,8,2147483647,2147483647,2147483647,2147483647,2147483647,2147483647,2147483647,2147483647,2147483647,2147483647,2147483647,2147483647,0,0],"split_type":[0,0,0,0,0,0,0,0,0,0,0,0,0,0,0,0,0,0,0,0,0,0,0,0,0,0,0,0,0,0,0,0,0,0,0,0,0,0,0,0,0,0,0,0,0,0,0,0,0,0,0,0,0],"sum_hessian":[1.7751062E2,9.167472E1,8.58359E1,3.7777996E1,5.3896725E1,4.4100506E1,4.1735394E1,1.9032421E1,1.8745573E1,5.200205E1,1.8946745E0,1.889269E1,2.5207815E1,3.8241098E0,3.7911285E1,1.07134905E1,8.318932E0,8.310932E0,1.0434641E1,4.9656868E1,2.345179E0,1.4746912E1,4.145777E0,2.23086E1,2.8992162E0,3.6772514E1,1.1387705E0,4.55565E0,3.7632813E0,7.119676E0,1.1912562E0,7.560499E0,2.8741417E0,4.6207417E1,3.4494524E0,5.041614E0,9.705298E0,2.3894377E0,1.991916E1,1.4715652E0,3.530095E1,3.3914318E0,1.1642185E0,2.4507203E0,4.668956E0,1.202168E0,6.358331E0,3.8304815E0,1.2111324E0,2.2329865E0,7.472312E0,1.6306587E0,1.8288504E1],"tree_param":{"num_deleted":"20","num_feature":"17","num_nodes":"53","size_leaf_vector":"0"}},{"base_weights":[-1.1447988E-1,-5.3727674E-1,4.3959963E-1,-1.0263137E0,-2.3590763E-1,-0E0,6.640415E-1,-1.0604527E0,-0E0,-4.9764702E-1,9.758729E-2,-1.0580023E-1,2.9128632E-1,7.226807E-1,-0E0,-0E0,-5.915555E-1,6.187967E-1,-1.3397785E-2,-3.0651674E-1,-0E0,5.912376E-1,-0E0,-0E0,8.070377E-1,-0E0,1.3257253E-1,-0E0,-6.571714E-1,7.7747077E-1,-0E0,-3.2796094E-1,-0E0,-0E0,-4.487497E-1,-7.3103964E-2,-0E0,-0E0,8.42125E-1,-1.1696561E-2,-0E0,-8.669764E-3,-0E0,-7.0714223E-1,-0E0,-0E0,8.6777335E-1,1.046252E-1,-0E0,-0E0,-5.425944E-1,-3.831772E-1,-0E0,8.712481E-1,-0E0],"categories":[],"categories_nodes":[],"categories_segments":[],"categories_sizes":[],"default_left":[1,1,1,1,1,1,1,0,0,1,1,1,1,1,1,0,1,1,1,1,0,0,1,0,1,1,1,1,1,1,0,1,1,0,1,1,1,0,1,1,1,1,1,0,0,1,1,1,1,0,0,1,1,1,1],"id":11,"left_children":[1,3,5,7,9,11,13,-1,-1,15,17,19,21,23,-1,-1,27,29,-1,33,-1,-1,-1,-1,37,-1,-1,-1,43,-1,-1,-1,-1,-1,49,-1,-1,-1,-1,-1,-1,-1,-1,-1,-1,-1,-1,-1,-1,-1,-1,-1,-1,-1,-1],"loss_changes":[4.1240944E1,1.0444468E1,5.463868E0,1.1239777E0,7.483561E0,1.3884777E0,1.1634827E-1,0E0,0E0,2.2252197E0,3.5939884E0,1.1297328E0,1.7700195E0,1.1634617E0,6.749054E-2,0E0,4.5452976E-1,9.1967726E-1,5.3051454E-1,1.2201227E0,0E0,0E0,2.5675237E-2,0E0,7.961292E-1,4.577098E-4,0E0,3.0678994E-4,1.5561838E0,3.502121E-1,0E0,0E0,8.839868E-2,0E0,7.430177E-1,4.0443993E-1,0E0,0E0,3.6153793E-1,0E0,0E0,0E0,0E0,0E0,0E0,0E0,0E0,0E0,0E0,0E0,0E0,0E0,0E0,0E0,0E0],"parents":[2147483647,0,0,1,1,2,2,3,3,4,4,5,5,6,6,9,9,10,10,11,11,12,12,13,13,14,14,16,16,17,17,18,18,19,19,22,22,24,24,25,25,27,27,28,28,29,29,32,32,34,34,35,35,38,38],"right_children":[2,4,6,8,10,12,14,-1,-1,16,18,20,22,24,-1,-1,28,30,-1,34,-1,-1,-1,-1,38,-1,-1,-1,44,-1,-1,-1,-1,-1,50,-1,-1,-1,-1,-1,-1,-1,-1,-1,-1,-1,-1,-1,-1,-1,-1,-1,-1,-1,-1],"split_conditions":[6.1499998E-2,7.5000003E-3,6.5E0,9.6965E2,2.3135E1,2.1455E1,2.0505E0,-1.166498E-1,-0E0,4.45E-2,4.395E-1,4.1995E0,1.572E0,1.617E1,-0E0,-0E0,1.5E0,4.5499998E-1,-1.4737563E-3,4.8049998E-1,-0E0,6.503613E-2,-0E0,-0E0,6.75E-2,-0E0,1.4582979E-2,-0E0,9.58E2,8.552179E-2,-0E0,-3.6075704E-2,-0E0,-0E0,5E-1,-8.041436E-3,-0E0,-0E0,9.263375E-2,-1.2866218E-3,-0E0,-9.53674E-4,-0E0,-7.778565E-2,-0E0,-0E0,9.5455065E-2,1.1508772E-2,-0E0,-0E0,-5.968538E-2,-4.214949E-2,-0E0,9.5837295E-2,-0E0],"split_indices":[6,6,1,2,12,12,4,0,0,4,4,4,4,12,6,0,1,10,3,4,0,0,4,0,6,2147483647,2147483647,3,2,4,0,2147483647,2147483647,0,1,2147483647,2147483647,0,4,2147483647,2147483647,2147483647,2147483647,0,0,2147483647,2147483647,2147483647,2147483647,0,0,2147483647,2147483647,2147483647,2147483647],"split_type":[0,0,0,0,0,0,0,0,0,0,0,0,0,0,0,0,0,0,0,0,0,0,0,0,0,0,0,0,0,0,0,0,0,0,0,0,0,0,0,0,0,0,0,0,0,0,0,0,0,0,0,0,0,0,0],"sum_hessian":[1.7257787E2,1.01485374E2,7.10925E1,3.3349457E1,6.813592E1,2.8106709E1,4.2985786E1,3.2172924E1,1.176534E0,4.3779114E1,2.4356804E1,1.4830878E1,1.327583E1,3.6360043E1,6.6257443E0,6.729846E0,3.7049267E1,9.008984E0,1.5347819E1,1.2910633E1,1.9202456E0,7.528651E0,5.7471795E0,5.615709E0,3.0744335E1,3.7857037E0,2.840041E0,6.166353E0,3.0882915E1,6.8619013E0,2.1470823E0,3.9596229E0,1.1388197E1,1.361679E0,1.1548954E1,3.8043282E0,1.9428513E0,1.4675475E0,2.9276787E1,2.3455987E0,1.4401048E0,3.0815632E0,3.0847902E0,2.9648115E1,1.2347988E0,1.0860505E0,5.775851E0,7.0755687E0,4.3126283E0,1.4416736E0,1.0107281E1,1.9294461E0,1.8748821E0,2.7762785E1,1.5140018E0],"tree_param":{"num_deleted":"18","num_feature":"17","num_nodes":"55","size_leaf_vector":"0"}},{"base_weights":[-1.010111E-1,-4.4986448E-1,2.1329303E-1,-7.290833E-1,9.586604E-2,-0E0,4.8513028E-1,-0E0,-8.519285E-1,-4.3521576E-2,3.997876E-1,-2.1927425E-1,2.4319743E-1,-0E0,5.829493E-1,1.7885485E-1,-2.939194E-1,-8.900418E-1,-0E0,-3.7633106E-1,-0E0,-0E0,5.582876E-1,-4.3636197E-1,-0E0,4.0629628E-1,-0E0,-3.0226537E-3,-0E0,6.695985E-1,-0E0,-3.4634864E-1,-0E0,-9.12881E-1,-0E0,6.4066625E-1,-0E0,-0E0,-6.452761E-1,-0E0,1.508867E-1,-0E0,5.2138364E-1,-2.3344405E-1,-0E0,-0E0,7.809667E-1,-0E0,-9.358268E-1,-7.1890587E-1,-0E0,-2.8443828E-1,-0E0,1.9731429E-1,-0E0],"categories":[],"categories_nodes":[],"categories_segments":[],"categories_sizes":[],"default_left":[1,1,1,1,1,1,1,1,1,1,1,1,1,1,1,0,1,1,0,0,0,0,1,1,1,1,0,1,1,1,0,1,1,1,0,0,0,0,1,1,1,0,0,1,1,1,1,1,1,1,1,1,1,1,1],"id":12,"left_children":[1,3,5,7,9,11,13,15,17,19,21,23,25,-1,29,-1,-1,33,-1,-1,-1,-1,35,37,-1,41,-1,-1,-1,-1,-1,-1,-1,-1,-1,-1,-1,-1,-1,-1,-1,-1,-1,-1,-1,-1,-1,-1,-1,-1,-1,-1,-1,-1,-1],"loss_changes":[1.946297E1,1.5350349E1,6.2005243E0,3.4829369E0,2.3513522E0,2.2655334E0,2.3157806E0,9.8045105E-1,1.7551575E0,9.258636E-1,1.2016895E0,1.9381948E0,1.1089818E0,4.184273E-5,2.4385843E0,0E0,2.1537966E-1,7.7651215E-1,0E0,0E0,0E0,0E0,7.434521E-1,1.5789084E0,1.1598563E-1,7.780714E-1,0E0,1.9010636E-1,0E0,1.4549923E-1,0E0,0E0,0E0,3.4684372E-1,0E0,0E0,0E0,0E0,3.7185764E-1,5.3550476E-1,0E0,0E0,0E0,0E0,0E0,2.6206464E-1,0E0,0E0,0E0,0E0,0E0,0E0,0E0,0E0,0E0],"parents":[2147483647,0,0,1,1,2,2,3,3,4,4,5,5,6,6,7,7,8,8,9,9,10,10,11,11,12,12,13,13,14,14,16,16,17,17,22,22,23,23,24,24,25,25,27,27,29,29,33,33,38,38,39,39,45,45],"right_children":[2,4,6,8,10,12,14,16,18,20,22,24,26,-1,30,-1,-1,34,-1,-1,-1,-1,36,38,-1,42,-1,-1,-1,-1,-1,-1,-1,-1,-1,-1,-1,-1,-1,-1,-1,-1,-1,-1,-1,-1,-1,-1,-1,-1,-1,-1,-1,-1,-1],"split_conditions":[2.55E-2,8.775986E4,5E-1,2.25E-2,3.715E2,8.05E-1,3.94E2,1.15E1,1.0635E3,2.5219569E5,1.1482065E5,1.225E-1,6.6549997E0,-0E0,8.8E-1,1.9674033E-2,-3.2331135E-2,7.015E2,-0E0,-4.1396417E-2,-0E0,-0E0,2.19E0,2.05E1,-0E0,1.25E-1,-0E0,-3.324919E-4,-0E0,7.365584E-2,-0E0,-3.809835E-2,-0E0,-1.0041691E-1,-0E0,7.047328E-2,-0E0,-0E0,-7.098038E-2,-0E0,1.6597537E-2,-0E0,5.73522E-2,-2.5678845E-2,-0E0,-0E0,8.5906334E-2,-0E0,-1.0294095E-1,-7.907964E-2,-0E0,-3.128821E-2,-0E0,2.1704571E-2,-0E0],"split_indices":[5,9,0,4,2,11,2,8,2,9,9,5,11,9,11,0,2,8,0,0,0,0,4,8,2,7,0,2147483647,2147483647,5,0,2147483647,2147483647,2,0,0,0,0,11,2147483647,2147483647,0,0,2147483647,2147483647,2147483647,2147483647,2147483647,2147483647,2147483647,2147483647,2147483647,2147483647,2147483647,2147483647],"split_type":[0,0,0,0,0,0,0,0,0,0,0,0,0,0,0,0,0,0,0,0,0,0,0,0,0,0,0,0,0,0,0,0,0,0,0,0,0,0,0,0,0,0,0,0,0,0,0,0,0,0,0,0,0,0,0],"sum_hessian":[1.6808058E2,8.473531E1,8.334527E1,6.007556E1,2.4659754E1,4.1695335E1,4.164993E1,1.1544978E1,4.8530582E1,9.598337E0,1.5061417E1,2.7817135E1,1.38782015E1,6.2979136E0,3.5352016E1,2.4868114E0,9.058167E0,4.6595036E1,1.9355481E0,5.679172E0,3.9191651E0,3.9697638E0,1.1091653E1,1.645563E1,1.1361506E1,1.1048661E1,2.8295398E0,3.5797653E0,2.7181482E0,3.1991375E1,3.3606405E0,8.038967E0,1.0191995E0,4.5175076E1,1.4199605E0,9.993312E0,1.0983413E0,5.681168E0,1.0774461E1,7.2669983E0,4.0945077E0,1.8698237E0,9.178838E0,2.4892056E0,1.0905597E0,8.49988E0,2.3491495E1,1.8405521E0,4.3334522E1,9.205615E0,1.5688461E0,5.618921E0,1.6480778E0,5.731182E0,2.7686977E0],"tree_param":{"num_deleted":"18","num_feature":"17","num_nodes":"55","size_leaf_vector":"0"}},{"base_weights":[-9.0372205E-2,-4.8055294E-1,4.0192652E-1,-9.6359664E-1,-1.9870375E-1,-0E0,6.085365E-1,-1.0112163E0,-0E0,-4.3259698E-1,7.274843E-2,-5.977638E-2,2.3601143E-1,6.265201E-1,-0E0,-1.0493625E0,-0E0,-0E0,-5.2132833E-1,5.611773E-1,-1.3515606E-2,-3.0428603E-1,-0E0,5.1991343E-1,-0E0,-0E0,6.6759735E-1,-5.839414E-1,-0E0,6.766654E-1,-0E0,-0E0,-2.430317E-1,-0E0,-5.106489E-1,1.4655912E-1,-0E0,-7.620205E-2,-0E0,-0E0,3.9138693E-2,7.904204E-1,-0E0,-6.381189E-1,-0E0,-0E0,2.8562713E-1,-6.149135E-1,-0E0,-7.0484185E-1,-0E0,-3.07822E-1,-0E0,-0E0,8.27723E-1,-0E0,1.03071645E-1],"categories":[],"categories_nodes":[],"categories_segments":[],"categories_sizes":[],"default_left":[1,1,1,1,1,1,1,1,0,1,1,1,1,1,0,0,0,0,1,1,1,1,1,0,1,1,1,1,0,0,0,1,1,0,1,1,1,1,1,1,1,1,1,0,0,1,1,0,0,0,0,1,1,0,0,1,1],"id":13,"left_children":[1,3,5,7,9,11,13,15,-1,17,19,21,23,25,-1,-1,-1,-1,27,29,31,33,-1,-1,-1,-1,41,43,-1,-1,-1,-1,47,-1,49,-1,-1,-1,-1,-1,-1,53,-1,-1,-1,-1,-1,-1,-1,-1,-1,-1,-1,-1,-1,-1,-1],"loss_changes":[3.2279507E1,8.920475E0,4.386425E0,1.8715305E0,5.5430307E0,8.246203E-1,2.9767704E-1,1.0559006E0,0E0,1.8415775E0,2.9746778E0,8.708128E-1,1.4239819E0,1.2234306E-1,0E0,0E0,0E0,0E0,6.167259E-1,8.1243014E-1,3.8408923E-1,1.3318262E0,1.0418954E-1,0E0,2.7745908E-2,4.9139764E-3,1.8636551E0,1.2478552E0,0E0,0E0,0E0,3.6377355E-1,1.5083938E0,0E0,1.3188941E0,0E0,0E0,3.0928877E-1,0E0,0E0,0E0,7.399597E-1,4.0237185E-2,0E0,0E0,0E0,0E0,0E0,0E0,0E0,0E0,0E0,0E0,0E0,0E0,0E0,0E0],"parents":[2147483647,0,0,1,1,2,2,3,3,4,4,5,5,6,6,7,7,9,9,10,10,11,11,12,12,13,13,18,18,19,19,20,20,21,21,22,22,24,24,25,25,26,26,27,27,31,31,32,32,34,34,37,37,41,41,42,42],"right_children":[2,4,6,8,10,12,14,16,-1,18,20,22,24,26,-1,-1,-1,-1,28,30,32,34,-1,-1,-1,-1,42,44,-1,-1,-1,-1,48,-1,50,-1,-1,-1,-1,-1,-1,54,-1,-1,-1,-1,-1,-1,-1,-1,-1,-1,-1,-1,-1,-1,-1],"split_conditions":[6.1499998E-2,7.5000003E-3,6.5E0,8.395E0,2.3135E1,2.1455E1,6.6549997E0,9.6965E2,-0E0,4.45E-2,4.395E-1,2.1375E0,1.572E0,1.5655E1,-0E0,-1.1542988E-1,-0E0,-0E0,2.305E0,1.39E2,5.1E1,4.8049998E-1,-0E0,5.7190478E-2,-0E0,-0E0,1.7590001E0,9.56E2,-0E0,7.44332E-2,-0E0,-0E0,1.135E2,-0E0,7.42E2,1.6121503E-2,-0E0,-8.382225E-3,-0E0,-0E0,4.305256E-3,6.75E-2,-0E0,-7.019308E-2,-0E0,-0E0,3.1418983E-2,-6.764049E-2,-0E0,-7.7532604E-2,-0E0,-3.386042E-2,-0E0,-0E0,9.104953E-2,-0E0,1.1337881E-2],"split_indices":[6,6,1,11,12,12,11,2,0,4,4,4,4,12,0,0,0,0,11,8,8,4,12,0,4,11,4,2,0,0,0,4,8,0,2,2147483647,2147483647,2147483647,2147483647,2147483647,2147483647,6,6,0,0,2147483647,2147483647,0,0,0,0,2147483647,2147483647,0,0,2147483647,2147483647],"split_type":[0,0,0,0,0,0,0,0,0,0,0,0,0,0,0,0,0,0,0,0,0,0,0,0,0,0,0,0,0,0,0,0,0,0,0,0,0,0,0,0,0,0,0,0,0,0,0,0,0,0,0,0,0,0,0,0,0],"sum_hessian":[1.6460944E2,9.580819E1,6.880125E1,2.9836483E1,6.59717E1,2.7506462E1,4.1294785E1,2.8830841E1,1.0056419E0,4.2044544E1,2.392716E1,1.4709943E1,1.2796519E1,3.965993E1,1.6348499E0,2.7660349E1,1.1704919E0,6.6297154E0,3.541483E1,8.855408E0,1.5071753E1,9.011317E0,5.6986256E0,7.110937E0,5.685582E0,4.5751677E0,3.5084766E1,2.983299E1,5.5818386E0,7.552739E0,1.3026683E0,9.519158E0,5.5525947E0,1.349122E0,7.662195E0,3.8506336E0,1.847992E0,3.778215E0,1.9073672E0,2.3672712E0,2.2078967E0,2.7724646E1,7.36012E0,2.7884195E1,1.9487965E0,6.0602126E0,3.4589455E0,4.012762E0,1.5398326E0,6.2013955E0,1.4607997E0,2.55693E0,1.2212849E0,1.4506693E0,2.6273975E1,4.57265E0,2.7874699E0],"tree_param":{"num_deleted":"12","num_feature":"17","num_nodes":"57","size_leaf_vector":"0"}},{"base_weights":[-7.766532E-2,-4.4565666E-1,3.7689325E-1,-5.726031E-1,9.602632E-2,4.5357502E-1,-0E0,-6.5332687E-1,-0E0,-0E0,3.3434093E-1,-0E0,6.0579616E-1,-0E0,-1.885436E-2,-7.395453E-1,-0E0,2.2077924E-1,-0E0,-1.6911324E-2,-0E0,-0E0,5.186631E-1,-1.7046343E-1,3.603244E-1,6.2666607E-1,-0E0,-2.9052022E-1,-0E0,-2.8544104E-1,-0E0,5.535551E-1,-0E0,6.574752E-1,-0E0,-0E0,-4.4333655E-1,-0E0,6.884738E-1],"categories":[],"categories_nodes":[],"categories_segments":[],"categories_sizes":[],"default_left":[1,1,1,1,1,1,1,1,1,1,1,1,1,1,1,0,0,1,1,1,1,0,0,1,1,1,1,1,1,1,0,0,0,1,1,0,0,1,1],"id":14,"left_children":[1,3,5,7,9,11,-1,15,-1,-1,21,23,-1,-1,-1,-1,-1,-1,-1,-1,-1,-1,-1,29,31,-1,-1,-1,-1,35,-1,-1,-1,-1,-1,-1,-1,-1,-1],"loss_changes":[2.737922E1,8.174225E0,2.6281023E0,5.123232E0,8.060922E-1,2.879468E0,2.920433E-3,4.224331E0,2.6937127E-1,1.1984992E-3,6.2258714E-1,1.6569488E0,1.1526394E-1,0E0,4.4667092E-1,0E0,0E0,0E0,0E0,0E0,0E0,0E0,0E0,3.8462806E-1,1.3204265E0,4.3249416E-1,0E0,0E0,0E0,6.39374E-1,0E0,0E0,0E0,1.5639114E-1,0E0,0E0,0E0,0E0,0E0],"parents":[2147483647,0,0,1,1,2,2,3,3,4,4,5,5,6,6,7,7,8,8,9,9,10,10,11,11,12,12,14,14,23,23,24,24,25,25,29,29,33,33],"right_children":[2,4,6,8,10,12,-1,16,-1,-1,22,24,-1,-1,-1,-1,-1,-1,-1,-1,-1,-1,-1,30,32,-1,-1,-1,-1,36,-1,-1,-1,-1,-1,-1,-1,-1,-1],"split_conditions":[6.1499998E-2,1.20437984E5,7.6E-1,4.5499998E-1,1.9499999E-2,1.185E-1,-0E0,2.6775E1,-0E0,-0E0,1.9145E1,4.7685816E4,6.6637576E-2,-0E0,-2.0739795E-3,-8.1349984E-2,-0E0,2.4285717E-2,-0E0,-1.8602456E-3,-0E0,-0E0,5.705294E-2,1.175E0,3.3158966E5,6.893327E-2,-0E0,-3.1957224E-2,-0E0,7.5000003E-3,-0E0,6.089106E-2,-0E0,7.232227E-2,-0E0,-0E0,-4.876702E-2,-0E0,7.573212E-2],"split_indices":[6,9,10,7,6,6,6,12,9,7,12,9,3,2147483647,2147483647,0,0,2147483647,2147483647,2147483647,2147483647,0,0,11,9,2147483647,2147483647,2147483647,2147483647,3,0,0,0,2147483647,2147483647,0,0,2147483647,2147483647],"split_type":[0,0,0,0,0,0,0,0,0,0,0,0,0,0,0,0,0,0,0,0,0,0,0,0,0,0,0,0,0,0,0,0,0,0,0,0,0,0,0],"sum_hessian":[1.6023631E2,9.281587E1,6.742043E1,8.038213E1,1.2433742E1,5.901607E1,8.404364E0,7.351655E1,6.8655877E0,5.1144233E0,7.319318E0,1.8525478E1,4.0490593E1,1.1890602E0,7.215304E0,6.4878365E1,8.63818E0,4.526305E0,2.339283E0,3.190661E0,1.9237624E0,2.5479915E0,4.7713265E0,9.00189E0,9.523587E0,3.8066593E1,2.424E0,4.326785E0,2.8885186E0,7.28779E0,1.7141006E0,7.768076E0,1.7555113E0,3.5491585E1,2.575008E0,1.5991459E0,5.6886435E0,2.8821592E0,3.260943E1],"tree_param":{"num_deleted":"14","num_feature":"17","num_nodes":"39","size_leaf_vector":"0"}},{"base_weights":[-6.661205E-2,-6.645786E-1,1.5965828E-1,-7.2296476E-1,-0E0,-0E0,4.6015707E-1,-7.607163E-1,-0E0,4.2431477E-1,-2.5515303E-1,5.56897E-1,-0E0,-8.894204E-1,-0E0,7.803713E-1,-0E0,-0E0,-4.127619E-1,5.8157116E-1,-0E0,-2.1320157E-2,-0E0,-0E0,-1.1981698E-1,-0E0,9.196518E-1,-0E0,-6.8120095E-3,-0E0,1.1162313E-3,-0E0,-5.011835E-1,6.111544E-1,-0E0,-3.1014574E-1,-0E0,-0E0,1.0288757E0,-2.9649107E-2,-0E0,-0E0,1.6629069E-1,-5.840245E-1,-0E0,-0E0,6.4393926E-1],"categories":[],"categories_nodes":[],"categories_segments":[],"categories_sizes":[],"default_left":[1,1,1,1,0,1,1,1,0,1,1,1,1,0,1,1,1,1,1,1,1,1,1,1,1,0,1,1,1,1,1,0,1,1,1,1,1,1,1,1,1,1,1,0,0,1,1],"id":15,"left_children":[1,3,5,7,-1,9,11,13,-1,15,17,-1,-1,-1,-1,25,-1,-1,31,-1,-1,-1,-1,-1,-1,-1,-1,-1,-1,-1,-1,-1,43,-1,-1,-1,-1,-1,-1,-1,-1,-1,-1,-1,-1,-1,-1],"loss_changes":[2.3148186E1,2.0799809E0,6.8927374E0,1.4503174E0,0E0,6.645526E0,2.802971E0,1.6223755E0,0E0,5.5158625E0,2.3985023E0,2.050085E-1,2.1122722E-3,0E0,1.3118389E-1,1.9326048E0,2.0117236E-4,1.0181081E-5,1.7731552E0,5.179663E-1,0E0,0E0,0E0,0E0,4.8791215E-1,0E0,5.774975E-1,0E0,0E0,5.2329046E-3,1.9660464E-1,0E0,1.8177857E0,2.8348923E-1,0E0,0E0,0E0,0E0,0E0,0E0,0E0,0E0,0E0,0E0,0E0,0E0,0E0],"parents":[2147483647,0,0,1,1,2,2,3,3,5,5,6,6,7,7,9,9,10,10,11,11,12,12,14,14,15,15,16,16,17,17,18,18,19,19,24,24,26,26,29,29,30,30,32,32,33,33],"right_children":[2,4,6,8,-1,10,12,14,-1,16,18,-1,-1,-1,-1,26,-1,-1,32,-1,-1,-1,-1,-1,-1,-1,-1,-1,-1,-1,-1,-1,44,-1,-1,-1,-1,-1,-1,-1,-1,-1,-1,-1,-1,-1,-1],"split_conditions":[1.75E-2,1.05E1,1.185E-1,1.0094999E1,-0E0,3.53E-1,7.6E-1,6.5E-3,-0E0,4.45E-1,5.5E0,6.1258666E-2,-0E0,-9.783624E-2,-0E0,5E-4,-0E0,-0E0,1.5E-2,6.397283E-2,-0E0,-2.3452172E-3,-0E0,-0E0,-1.31798675E-2,-0E0,1.01161696E-1,-0E0,-7.49321E-4,-0E0,1.2278544E-4,-0E0,1.47E0,6.722698E-2,-0E0,-3.411603E-2,-0E0,-0E0,1.1317633E-1,-3.2614018E-3,-0E0,-0E0,1.8291974E-2,-6.424269E-2,-0E0,-0E0,7.083332E-2],"split_indices":[6,1,6,11,0,4,10,3,0,10,1,11,4,0,3,3,10,12,10,2147483647,2147483647,2147483647,2147483647,2147483647,2147483647,0,12,2147483647,2147483647,2147483647,2147483647,0,10,2147483647,2147483647,2147483647,2147483647,2147483647,2147483647,2147483647,2147483647,2147483647,2147483647,0,0,2147483647,2147483647],"split_type":[0,0,0,0,0,0,0,0,0,0,0,0,0,0,0,0,0,0,0,0,0,0,0,0,0,0,0,0,0,0,0,0,0,0,0,0,0,0,0,0,0,0,0,0,0,0,0],"sum_hessian":[1.562397E2,4.660565E1,1.0963404E2,4.32064E1,3.3992507E0,6.4763275E1,4.4870766E1,4.1433884E1,1.772519E0,1.900203E1,4.5761242E1,3.935625E1,5.5145164E0,3.209246E1,9.341423E0,1.3971094E1,5.030935E0,1.4814733E1,3.0946512E1,3.6610657E1,2.7455933E0,3.6469612E0,1.8675549E0,1.2035775E0,8.137845E0,1.9062766E0,1.2064817E1,1.6956481E0,3.3352869E0,7.6435404E0,7.171192E0,3.2188385E0,2.7727673E1,3.444441E1,2.166247E0,5.4361534E0,2.7016916E0,2.08111E0,9.983707E0,4.9527764E0,2.6907637E0,1.0610149E0,6.1101775E0,2.548535E1,2.2423236E0,2.833615E0,3.1610794E1],"tree_param":{"num_deleted":"22","num_feature":"17","num_nodes":"47","size_leaf_vector":"0"}},{"base_weights":[-6.1147306E-2,-8.7495714E-1,7.727926E-2,-9.142794E-1,-0E0,-6.2465668E-2,4.1803154E-1,-9.61614E-1,-0E0,-3.4906834E-1,1.5414402E-1,-0E0,5.0930554E-1,-4.5947233E-1,6.810143E-2,-0E0,5.4159814E-1,5.7642764E-1,-0E0,-5.2920794E-1,-0E0,-0E0,-7.8678615E-2,-0E0,6.807689E-1,-0E0,6.5486765E-1,-0E0,-6.245883E-1,-0E0,2.76459E-1,-2.527152E-1,-0E0,7.614707E-1,-0E0],"categories":[],"categories_nodes":[],"categories_segments":[],"categories_sizes":[],"default_left":[1,1,1,1,0,1,1,0,0,1,1,0,1,1,0,1,1,1,0,1,0,1,1,0,0,0,1,0,0,1,1,0,0,1,1],"id":16,"left_children":[1,3,5,7,-1,9,11,-1,-1,13,15,-1,17,19,-1,21,23,25,-1,27,-1,-1,31,-1,-1,-1,-1,-1,-1,-1,-1,-1,-1,-1,-1],"loss_changes":[2.0169022E1,8.690586E-1,7.3924317E0,8.8900566E-1,0E0,5.997802E0,2.918344E0,0E0,0E0,3.4158797E0,3.5382578E0,0E0,1.4308443E0,1.9017973E0,0E0,1.3154992E-1,1.1393995E0,6.728554E-1,0E0,2.1068754E0,0E0,3.677176E-1,9.131185E-1,0E0,0E0,0E0,2.3363781E-1,0E0,0E0,0E0,0E0,0E0,0E0,0E0,0E0],"parents":[2147483647,0,0,1,1,2,2,3,3,5,5,6,6,9,9,10,10,12,12,13,13,15,15,16,16,17,17,19,19,21,21,22,22,26,26],"right_children":[2,4,6,8,-1,10,12,-1,-1,14,16,-1,18,20,-1,22,24,26,-1,28,-1,-1,32,-1,-1,-1,-1,-1,-1,-1,-1,-1,-1,-1,-1],"split_conditions":[7.5000003E-3,9.6965E2,1.185E-1,2.1696733E5,-0E0,4.877639E4,1.25E-2,-1.0577754E-1,-0E0,9.6E2,2.323E1,-0E0,7.6E-1,2.7515E1,7.491157E-3,3.54E-1,6.2642945E4,1.6945E1,-0E0,2.4500001E-2,-0E0,-0E0,1.1E-1,-0E0,7.488458E-2,-0E0,7.203544E-2,-0E0,-6.870472E-2,-0E0,3.041049E-2,-2.7798671E-2,-0E0,8.3761774E-2,-0E0],"split_indices":[6,2,6,9,0,9,5,0,0,2,12,0,10,12,0,4,9,12,0,4,0,6,10,0,0,0,5,0,0,2147483647,2147483647,0,0,2147483647,2147483647],"split_type":[0,0,0,0,0,0,0,0,0,0,0,0,0,0,0,0,0,0,0,0,0,0,0,0,0,0,0,0,0,0,0,0,0,0,0],"sum_hessian":[1.5265367E2,2.5093342E1,1.2756033E2,2.3936773E1,1.1565688E0,8.375649E1,4.380384E1,2.2503609E1,1.4331632E0,4.274539E1,4.10111E1,3.3691568E0,4.0434685E1,4.0354134E1,2.3912568E0,2.6545652E1,1.4465448E1,3.5653084E1,4.7816014E0,3.696411E1,3.3900237E0,6.29476E0,2.025089E1,3.2183826E0,1.1247066E1,6.6857677E0,2.8967316E1,5.3088956E0,3.1655216E1,2.4835656E0,3.8111947E0,1.5357457E1,4.893434E0,2.1566957E1,7.4003572E0],"tree_param":{"num_deleted":"4","num_feature":"17","num_nodes":"35","size_leaf_vector":"0"}},{"base_weights":[-4.9564417E-2,-8.4177935E-1,7.598547E-2,-8.978994E-1,-0E0,-4.262616E-2,3.81289E-1,-9.4903165E-1,-0E0,2.68798E-1,-2.0219752E-1,-0E0,4.7188348E-1,6.5910065E-1,-0E0,-5.394166E-1,-0E0,5.0927895E-1,-0E0,8.577616E-1,-0E0,-4.6817567E-2,-0E0,-6.933021E-1,-0E0,2.4195878E-1,-1.2998119E-1,5.5920094E-1,-0E0,-0E0,9.303821E-1,-0E0,-2.3672964E-1,-7.6784605E-1,-0E0,-0E0,4.109014E-1,-0E0,-2.648673E-1,-0E0,5.79084E-1],"categories":[],"categories_nodes":[],"categories_segments":[],"categories_sizes":[],"default_left":[1,1,1,1,0,1,1,0,0,1,1,0,1,1,1,1,1,1,0,1,0,1,1,1,0,1,1,1,0,1,1,1,1,0,0,0,0,0,0,1,1],"id":17,"left_children":[1,3,5,7,-1,9,11,-1,-1,13,15,-1,17,19,-1,23,25,27,-1,-1,-1,-1,-1,33,-1,35,37,-1,-1,-1,-1,-1,-1,-1,-1,-1,-1,-1,-1,-1,-1],"loss_changes":[1.7652555E1,1.5555859E0,5.782014E0,1.2704449E0,0E0,3.982628E0,2.6311936E0,0E0,0E0,3.8270633E0,3.1951952E0,0E0,8.329067E-1,2.0848093E0,1.9647598E-2,1.8179684E0,1.1968291E0,7.9870224E-1,0E0,4.1120005E-1,0E0,4.0934423E-1,0E0,1.0484381E0,0E0,8.485468E-1,1.1925749E0,3.5891533E-2,0E0,0E0,0E0,0E0,0E0,0E0,0E0,0E0,0E0,0E0,0E0,0E0,0E0],"parents":[2147483647,0,0,1,1,2,2,3,3,5,5,6,6,9,9,10,10,12,12,13,13,14,14,15,15,16,16,17,17,19,19,21,21,23,23,25,25,26,26,27,27],"right_children":[2,4,6,8,-1,10,12,-1,-1,14,16,-1,18,20,-1,24,26,28,-1,-1,-1,-1,-1,34,-1,36,38,-1,-1,-1,-1,-1,-1,-1,-1,-1,-1,-1,-1,-1,-1],"split_conditions":[7.5000003E-3,8.14E0,1.185E-1,4.45E-1,-0E0,2.065E-1,1.25E-2,-1.0439348E-1,-0E0,6.05E1,6.5E-3,-0E0,3.0105E-1,3.8E-1,-0E0,3.9499998E-2,6.775E-1,2.865E0,-0E0,9.435378E-2,-0E0,-5.1499326E-3,-0E0,1.05E1,-0E0,1.5E1,1.35E-2,6.1512105E-2,-0E0,-0E0,1.02342024E-1,-0E0,-2.604026E-2,-8.446307E-2,-0E0,-0E0,4.5199152E-2,-0E0,-2.9135404E-2,-0E0,6.369924E-2],"split_indices":[6,11,6,7,0,4,5,0,0,8,3,0,3,11,3,6,4,11,0,5,0,2147483647,2147483647,1,0,8,3,5,0,2147483647,2147483647,2147483647,2147483647,0,0,0,0,0,0,2147483647,2147483647],"split_type":[0,0,0,0,0,0,0,0,0,0,0,0,0,0,0,0,0,0,0,0,0,0,0,0,0,0,0,0,0,0,0,0,0,0,0,0,0,0,0,0,0],"sum_hessian":[1.488888E2,2.3401138E1,1.2548765E2,2.2375717E1,1.0254204E0,8.273943E1,4.2748215E1,2.1335255E1,1.0404633E0,2.0368807E1,6.2370625E1,3.3691568E0,3.937906E1,1.1363815E1,9.0049925E0,1.8885294E1,4.3485332E1,3.6878174E1,2.500887E0,9.133563E0,2.2302527E0,7.963792E0,1.0412005E0,1.4819653E1,4.065641E0,9.284757E0,3.4200573E1,3.2971165E1,3.9070084E0,1.0451604E0,8.088402E0,1.3088175E0,6.6549745E0,1.36754055E1,1.144247E0,1.6928443E0,7.5919127E0,9.724125E0,2.447645E1,2.1857417E0,3.0785423E1],"tree_param":{"num_deleted":"8","num_feature":"17","num_nodes":"41","size_leaf_vector":"0"}},{"base_weights":[-4.5327887E-2,-3.4585124E-1,1.2730692E-1,-5.5546236E-1,-0E0,5.6101817E-1,-0E0,-6.404325E-1,-0E0,-3.1357363E-1,2.1307369E-1,-0E0,7.461975E-1,-1.1983852E-1,9.3558125E-2,-0E0,-7.177017E-1,-0E0,-5.2674305E-1,3.8235965E-1,-0E0,-0E0,7.987956E-1,-3.2182926E-1,3.3090025E-1,2.231866E-1,-0E0,-7.6223046E-1,-0E0,4.9753204E-1,-0E0,-4.2054626E-1,-0E0,3.7668076E-1,-0E0,-6.786793E-2,-0E0,-0E0,5.9444517E-1,-4.904174E-1,-0E0,-0E0,5.29987E-1,-9.619932E-2,-0E0],"categories":[],"categories_nodes":[],"categories_segments":[],"categories_sizes":[],"default_left":[1,1,1,1,1,1,1,1,0,1,1,0,1,1,1,0,1,0,0,1,0,1,1,1,0,1,1,1,1,1,0,1,0,1,0,1,1,1,1,0,0,0,0,1,1],"id":18,"left_children":[1,3,5,7,9,11,13,15,-1,17,19,-1,-1,23,25,-1,-1,-1,-1,29,-1,-1,-1,31,-1,33,-1,-1,-1,-1,-1,39,-1,41,-1,-1,-1,-1,-1,-1,-1,-1,-1,-1,-1],"loss_changes":[8.412553E0,4.5551896E0,5.088721E0,2.6087055E0,1.6262839E0,2.2003555E0,7.750417E-1,7.2487354E-1,0E0,9.4878644E-1,1.2246234E0,0E0,5.637417E-1,3.0222914E0,1.1218688E0,0E0,3.735695E-1,0E0,0E0,1.075292E0,0E0,0E0,0E0,1.5071185E0,0E0,1.6243824E0,3.0210119E-2,0E0,0E0,4.340992E-1,0E0,8.073592E-1,0E0,1.1716337E0,0E0,2.1107286E-2,0E0,0E0,0E0,0E0,0E0,0E0,0E0,0E0,0E0],"parents":[2147483647,0,0,1,1,2,2,3,3,4,4,5,5,6,6,7,7,9,9,10,10,12,12,13,13,14,14,16,16,19,19,23,23,25,25,26,26,29,29,31,31,33,33,35,35],"right_children":[2,4,6,8,10,12,14,16,-1,18,20,-1,-1,24,26,-1,-1,-1,-1,30,-1,-1,-1,32,-1,34,-1,-1,-1,-1,-1,40,-1,42,-1,-1,-1,-1,-1,-1,-1,-1,-1,-1,-1],"split_conditions":[6.5E-3,8.5E0,6.7999995E-1,9.025E2,5E-1,1.911E1,7.5E0,1.85E-2,-0E0,1.7395E1,6.15E-1,-0E0,8.208173E-2,4.079E0,3.4035E0,-0E0,-7.894719E-2,-0E0,-5.7941735E-2,1.4445E0,-0E0,-0E0,8.786751E-2,5E-1,3.639903E-2,5E-1,-0E0,-8.384535E-2,-0E0,5.4728523E-2,-0E0,4.35E-1,-0E0,3.9085E2,-0E0,-7.465472E-3,-0E0,-0E0,6.538897E-2,-5.3945914E-2,-0E0,-0E0,5.8298565E-2,-1.0581925E-2,-0E0],"split_indices":[3,1,4,2,0,12,1,4,0,12,10,0,2,4,4,0,12,0,0,4,0,2147483647,2147483647,15,0,16,3,2147483647,2147483647,2,0,7,0,2,0,2147483647,2147483647,2147483647,2147483647,0,0,0,0,2147483647,2147483647],"split_type":[0,0,0,0,0,0,0,0,0,0,0,0,0,0,0,0,0,0,0,0,0,0,0,0,0,0,0,0,0,0,0,0,0,0,0,0,0,0,0,0,0,0,0,0,0],"sum_hessian":[1.4555942E2,6.0139313E1,8.5420105E1,3.7466034E1,2.2673277E1,1.9617996E1,6.580211E1,3.429641E1,3.169626E0,8.562182E0,1.41110935E1,5.01181E0,1.4606186E1,3.1374594E1,3.4427513E1,5.7837777E0,2.8512632E1,2.753876E0,5.808306E0,1.2068997E1,2.0420961E0,1.1040643E0,1.3502122E1,2.7225145E1,4.149449E0,2.7747349E1,6.680166E0,2.5808132E1,2.704499E0,1.1062646E1,1.0063515E0,2.4051071E1,3.1740737E0,2.054054E1,7.206808E0,5.558783E0,1.1213828E0,2.3840892E0,8.678557E0,2.0778255E1,3.272816E0,6.4882317E0,1.4052309E1,4.545244E0,1.0135388E0],"tree_param":{"num_deleted":"10","num_feature":"17","num_nodes":"45","size_leaf_vector":"0"}},{"base_weights":[-3.9826643E-2,-7.895066E-1,6.588144E-2,-8.4794396E-1,-0E0,-1.0529897E-1,2.82971E-1,-8.9722896E-1,-0E0,-2.6444495E-1,6.824621E-2,4.6669814E-1,-0E0,-4.0488052E-1,-0E0,-0E0,3.3406478E-1,-0E0,5.654989E-1,-1.2559697E-1,4.6860058E-2,-0E0,-4.5344546E-1,-0E0,1.0165273E-1,-5.074615E-2,-0E0,4.3953398E-1,-0E0,6.780363E-1,-0E0,-0E0,-3.5886818E-1,-0E0,2.1293333E-1,-0E0,-4.9526703E-1,-0E0,-7.4189365E-2,6.0649437E-1,-0E0,-0E0,7.695753E-1,-6.3329935E-1,-0E0,-0E0,2.942351E-1],"categories":[],"categories_nodes":[],"categories_segments":[],"categories_sizes":[],"default_left":[1,1,1,1,0,1,1,0,0,1,1,1,1,1,1,1,1,0,1,1,1,0,1,1,1,1,1,1,0,1,0,0,1,1,1,0,0,1,1,1,1,0,0,0,0,1,1],"id":19,"left_children":[1,3,5,7,-1,9,11,-1,-1,13,15,17,19,21,-1,-1,27,-1,29,31,-1,-1,35,-1,-1,-1,-1,-1,-1,41,-1,-1,43,-1,-1,-1,-1,-1,-1,-1,-1,-1,-1,-1,-1,-1,-1],"loss_changes":[1.4006913E1,1.3271065E0,5.228205E0,8.817663E-1,0E0,2.3776796E0,3.9532132E0,0E0,0E0,2.3777065E0,1.2328086E0,1.2782125E0,2.5085208E-1,9.197502E-1,4.3759014E-2,1.2493598E-2,7.270465E-1,9.968953E-8,1.4740686E0,9.6124387E-1,3.4228426E-1,0E0,8.481517E-1,2.4987102E-2,0E0,0E0,0E0,5.4798174E-1,0E0,2.2517166E0,0E0,0E0,2.002881E0,0E0,2.3830879E-1,0E0,0E0,0E0,0E0,0E0,0E0,0E0,0E0,0E0,0E0,0E0,0E0],"parents":[2147483647,0,0,1,1,2,2,3,3,5,5,6,6,9,9,10,10,11,11,12,12,13,13,14,14,15,15,16,16,18,18,19,19,20,20,22,22,23,23,27,27,29,29,32,32,34,34],"right_children":[2,4,6,8,-1,10,12,-1,-1,14,16,18,20,22,-1,-1,28,-1,30,32,-1,-1,36,-1,-1,-1,-1,-1,-1,42,-1,-1,44,-1,-1,-1,-1,-1,-1,-1,-1,-1,-1,-1,-1,-1,-1],"split_conditions":[7.5000003E-3,7.98E0,5E-1,9.6965E2,-0E0,8.05E-1,1.7500001E-1,-9.869518E-2,-0E0,7.335E2,3.25E-2,2.25E-2,5.985E2,1.5E-2,-0E0,-0E0,1.0405E3,-0E0,1.6915E0,2.9549998E-1,5.1546064E-3,-0E0,2E-2,-0E0,1.11818E-2,-5.5820765E-3,-0E0,4.8348736E-2,-0E0,1.8215E1,-0E0,-0E0,3.365E-1,-0E0,2.3422666E-2,-0E0,-5.447937E-2,-0E0,-8.1608305E-3,6.671438E-2,-0E0,-0E0,8.465328E-2,-6.966293E-2,-0E0,-0E0,3.2365862E-2],"split_indices":[6,11,0,2,0,11,10,0,0,2,5,6,2,10,5,3,2,0,4,4,10,0,4,2147483647,2147483647,2147483647,2147483647,13,0,12,0,0,5,2147483647,2147483647,0,0,2147483647,2147483647,2147483647,2147483647,0,0,0,0,2147483647,2147483647],"split_type":[0,0,0,0,0,0,0,0,0,0,0,0,0,0,0,0,0,0,0,0,0,0,0,0,0,0,0,0,0,0,0,0,0,0,0,0,0,0,0,0,0,0,0,0,0,0,0],"sum_hessian":[1.431339E2,2.0980667E1,1.2215324E2,1.9901144E1,1.0795225E0,5.9571907E1,6.258133E1,1.8763334E1,1.1378095E0,4.132216E1,1.8249746E1,4.05245E1,2.2056828E1,3.1559023E1,9.763137E0,7.399623E0,1.0850123E1,9.245256E0,3.1279245E1,1.358358E1,8.4732485E0,2.1275826E0,2.943144E1,6.528371E0,3.2347662E0,3.851559E0,3.5480638E0,9.608782E0,1.2413421E0,2.46597E1,6.6195445E0,5.333424E0,8.250155E0,1.4652779E0,7.0079703E0,1.4646623E0,2.7966778E1,2.9886146E0,3.5397563E0,6.061565E0,3.5472167E0,1.9392711E0,2.272043E1,6.9641714E0,1.2859844E0,1.0613937E0,5.9465766E0],"tree_param":{"num_deleted":"12","num_feature":"17","num_nodes":"47","size_leaf_vector":"0"}},{"base_weights":[-3.0806143E-2,-7.562486E-1,6.326674E-2,-8.0751127E-1,-0E0,-8.8415734E-2,2.6396683E-1,-3.1700924E-1,-0E0,4.2942303E-1,-0E0,-0E0,-3.912218E-1,-3.224576E-2,1.5036969E-1,-0E0,5.1977605E-1,7.320699E-3,-6.56648E-2,-0E0,-4.7504398E-1,-2.5048238E-1,-0E0,2.5692707E-1,-0E0,6.237439E-1,-0E0,2.9564017E-1,-0E0,-3.443596E-1,-0E0,-0E0,-5.132436E-1,-0E0,-5.15939E-1,6.1992947E-3,-0E0,3.9136615E-1,-0E0,-0E0,7.138691E-1,4.01529E-1,-0E0,-5.594528E-1,-0E0,5.9488816E-3,-0E0],"categories":[],"categories_nodes":[],"categories_segments":[],"categories_sizes":[],"default_left":[1,1,1,0,0,1,1,1,1,1,1,0,1,1,1,0,1,1,1,0,1,1,1,1,0,1,0,1,1,1,1,1,1,0,0,1,1,0,0,0,0,1,1,0,0,1,1],"id":20,"left_children":[1,3,5,-1,-1,7,9,11,13,15,17,-1,19,21,23,-1,25,-1,29,-1,-1,33,-1,37,-1,39,-1,-1,-1,43,-1,-1,-1,-1,-1,-1,-1,-1,-1,-1,-1,-1,-1,-1,-1,-1,-1],"loss_changes":[1.2129401E1,9.875212E-1,4.3488207E0,0E0,0E0,2.0299003E0,3.144691E0,1.0576098E0,4.8381227E-1,9.9522305E-1,6.6960834E-2,0E0,6.8772197E-1,6.8270814E-1,7.0098376E-1,9.968953E-8,1.1676292E0,5.5443853E-1,9.5505285E-1,0E0,2.6040792E-1,1.8010515E0,1.4238333E-4,1.1320127E0,0E0,2.009099E0,0E0,2.8603488E-1,0E0,1.1202606E0,2.1017845E-4,0E0,0E0,0E0,0E0,0E0,0E0,0E0,0E0,0E0,0E0,0E0,0E0,0E0,0E0,0E0,0E0],"parents":[2147483647,0,0,1,1,2,2,5,5,6,6,7,7,8,8,9,9,10,10,12,12,13,13,14,14,16,16,17,17,18,18,20,20,21,21,22,22,23,23,25,25,27,27,29,29,30,30],"right_children":[2,4,6,-1,-1,8,10,12,14,16,18,-1,20,22,24,-1,26,-1,30,-1,-1,34,-1,38,-1,40,-1,-1,-1,44,-1,-1,-1,-1,-1,-1,-1,-1,-1,-1,-1,-1,-1,-1,-1,-1,-1],"split_conditions":[7.5000003E-3,4.45E-1,5E-1,-8.882624E-2,-0E0,5.55E-2,1.7500001E-1,2.5E0,8.5E0,2.25E-2,2.9549998E-1,-0E0,1.5E0,2.0855E0,2.1585E1,-0E0,1.6915E0,8.0527685E-4,1.06E2,-0E0,-5.2254837E-2,4.445E-1,-0E0,6.25E-2,-0E0,1.8215E1,-0E0,3.2520417E-2,-0E0,4.55E-2,-0E0,-0E0,-5.6456797E-2,-0E0,-5.675329E-2,6.819224E-4,-0E0,4.3050278E-2,-0E0,-0E0,7.85256E-2,4.4168193E-2,-0E0,-6.1539806E-2,-0E0,6.54377E-4,-0E0],"split_indices":[6,7,0,0,0,6,10,8,1,6,4,0,1,4,12,0,4,10,8,0,12,4,10,3,0,12,0,2147483647,2147483647,3,14,2147483647,2147483647,0,0,2147483647,2147483647,0,0,0,0,2147483647,2147483647,0,0,2147483647,2147483647],"split_type":[0,0,0,0,0,0,0,0,0,0,0,0,0,0,0,0,0,0,0,0,0,0,0,0,0,0,0,0,0,0,0,0,0,0,0,0,0,0,0,0,0,0,0,0,0,0,0],"sum_hessian":[1.4049309E2,1.9590132E1,1.20902954E2,1.8573322E1,1.0168087E0,5.924674E1,6.165621E1,2.388555E1,3.5361187E1,3.9728374E1,2.1927841E1,1.635796E0,2.2249754E1,1.5733528E1,1.962766E1,9.245256E0,3.0483116E1,7.5041065E0,1.4423734E1,4.433509E0,1.7816244E1,1.0158616E1,5.574912E0,1.668474E1,2.9429197E0,2.3863571E1,6.6195445E0,5.3486786E0,2.1554275E0,7.6146684E0,6.8090653E0,1.7081054E0,1.6108139E1,1.7625812E0,8.396035E0,2.7048836E0,2.8700285E0,1.4012387E1,2.6723533E0,1.9392711E0,2.1924301E1,4.215855E0,1.1328236E0,5.8431473E0,1.7715216E0,4.9390574E0,1.870008E0],"tree_param":{"num_deleted":"10","num_feature":"17","num_nodes":"47","size_leaf_vector":"0"}},{"base_weights":[-2.3905108E-2,-3.3649847E-1,2.0897754E-1,-0E0,-6.0050535E-1,5.132353E-1,-0E0,-1.1241272E-1,3.966474E-2,-6.595797E-1,-0E0,-0E0,7.298465E-1,-1.7702249E-1,1.6428512E-1,-0E0,-4.0089297E-1,-0E0,2.29318E-1,-0E0,-7.621145E-1,-0E0,8.359253E-1,-0E0,-3.2395092E-1,-0E0,2.8967106E-1,-0E0,2.1383837E-2,-4.413837E-1,-0E0,4.8892194E-1,-0E0,-0E0,-4.269594E-1,3.7397876E-1,-0E0,-0E0,1.630559E-1,-0E0,5.8573025E-1,-3.462545E-2,4.8665226E-2,-6.0750014E-1,-0E0,-0E0,5.036374E-1],"categories":[],"categories_nodes":[],"categories_segments":[],"categories_sizes":[],"default_left":[1,1,1,1,1,1,1,1,1,1,0,0,1,1,1,1,1,0,1,0,0,0,0,0,1,0,1,1,1,1,1,1,1,0,1,1,0,1,1,1,1,1,1,0,0,0,0],"id":21,"left_children":[1,3,5,7,9,11,13,15,17,19,-1,-1,21,23,25,-1,-1,-1,31,-1,-1,-1,-1,-1,33,-1,35,-1,-1,-1,-1,-1,-1,-1,43,45,-1,-1,-1,-1,-1,-1,-1,-1,-1,-1,-1],"loss_changes":[1.0609597E1,4.934128E0,3.8346462E0,2.6223248E-1,9.8572063E-1,1.8839374E0,1.4005919E0,1.3191061E0,6.5845275E-1,1.0819788E0,0E0,0E0,1.0633202E0,1.0413029E0,1.3532931E0,3.6078084E-3,1.03108644E-1,0E0,7.4054515E-1,0E0,0E0,0E0,0E0,0E0,9.701452E-1,0E0,6.701155E-1,0E0,1.4924754E-1,0E0,0E0,1.8196893E-1,1.6073583E-2,0E0,1.4038143E0,1.0190275E0,0E0,0E0,0E0,0E0,0E0,0E0,0E0,0E0,0E0,0E0,0E0],"parents":[2147483647,0,0,1,1,2,2,3,3,4,4,5,5,6,6,7,7,8,8,9,9,12,12,13,13,14,14,15,15,16,16,18,18,24,24,26,26,28,28,31,31,32,32,34,34,35,35],"right_children":[2,4,6,8,10,12,14,16,18,20,-1,-1,22,24,26,-1,-1,-1,32,-1,-1,-1,-1,-1,34,-1,36,-1,-1,-1,-1,-1,-1,-1,44,46,-1,-1,-1,-1,-1,-1,-1,-1,-1,-1,-1],"split_conditions":[3.85E-2,1.6E-1,8.075E-1,6.5E-3,3.9499998E-2,2.0195E1,1.185E-1,2.245E-1,1.62E1,1.9499999E-2,-0E0,-0E0,1.325E-1,2.1499999E-2,1.55E-2,-0E0,-4.409823E-2,-0E0,1.45E-2,-0E0,-8.38326E-2,-0E0,9.195178E-2,-0E0,4.35E-2,-0E0,9.285E-1,-0E0,2.352222E-3,-4.8552204E-2,-0E0,5.3781413E-2,-0E0,-0E0,4.6499997E-2,1.6945E1,-0E0,-0E0,1.7936148E-2,-0E0,6.4430326E-2,-3.8087992E-3,5.3531746E-3,-6.682502E-2,-0E0,-0E0,5.540011E-2],"split_indices":[6,10,4,3,5,12,6,4,12,4,0,0,7,5,5,6,7,0,3,0,0,0,0,0,6,0,5,2147483647,2147483647,2147483647,2147483647,1,10,0,3,12,0,2147483647,2147483647,2147483647,2147483647,2147483647,2147483647,0,0,0,0],"split_type":[0,0,0,0,0,0,0,0,0,0,0,0,0,0,0,0,0,0,0,0,0,0,0,0,0,0,0,0,0,0,0,0,0,0,0,0,0,0,0,0,0,0,0,0,0,0,0],"sum_hessian":[1.376441E2,6.499151E1,7.26526E1,3.1587194E1,3.3404312E1,2.5768766E1,4.6883835E1,1.7926497E1,1.3660698E1,2.9783339E1,3.6209755E0,9.994755E0,1.5774012E1,1.768644E1,2.9197395E1,9.23063E0,8.695866E0,1.7008092E0,1.1959888E1,5.8631167E0,2.3920221E1,2.4654183E0,1.3308594E1,3.1841104E0,1.450233E1,4.3563013E0,2.4841093E1,2.3407168E0,6.889913E0,7.5277963E0,1.1680698E0,4.9489446E0,7.010944E0,1.2560034E0,1.3246326E1,1.9294739E1,5.5463557E0,2.14071E0,4.749203E0,1.2735552E0,3.6753895E0,3.5041482E0,3.5067956E0,9.840724E0,3.4056017E0,5.0869994E0,1.4207739E1],"tree_param":{"num_deleted":"10","num_feature":"17","num_nodes":"47","size_leaf_vector":"0"}},{"base_weights":[-1.8882873E-2,-2.618146E-1,1.507496E-1,-4.7859287E-1,3.6864966E-2,-0E0,3.565878E-1,-0E0,-5.996408E-1,-0E0,2.6982445E-1,-1.7879026E-1,1.7439748E-1,-0E0,4.6348283E-1,3.3549357E-2,-4.5939185E-2,-6.8840164E-1,-0E0,-6.1232675E-2,-0E0,3.318838E-1,-0E0,-2.9252476E-1,-0E0,3.0584142E-1,-0E0,-8.872067E-3,-0E0,5.38809E-1,-0E0,-1.806858E-1,-0E0,-7.5175536E-1,-0E0,-1.649049E-1,-0E0,-0E0,4.3458366E-1,-0E0,-4.266965E-1,4.9522266E-1,-0E0,-1.8437281E-1,-0E0,-0E0,5.602815E-1,-2.3109935E-1,-0E0,-0E0,-7.672369E-1,-5.647491E-1,-0E0,6.3252723E-1,-0E0],"categories":[],"categories_nodes":[],"categories_segments":[],"categories_sizes":[],"default_left":[1,1,1,1,1,1,1,1,1,1,1,1,1,1,1,1,1,1,0,1,1,1,1,1,0,1,0,1,1,1,0,1,1,1,0,1,1,1,1,0,1,1,0,1,1,1,1,1,1,1,1,0,0,1,1],"id":22,"left_children":[1,3,5,7,9,11,13,-1,17,-1,-1,23,25,-1,29,-1,-1,33,-1,-1,-1,-1,-1,39,-1,41,-1,-1,-1,-1,-1,-1,-1,-1,-1,-1,-1,-1,-1,-1,51,-1,-1,-1,-1,-1,-1,-1,-1,-1,-1,-1,-1,-1,-1],"loss_changes":[6.0299625E0,5.7554846E0,2.8817573E0,2.4201546E0,8.724996E-1,1.212352E0,2.0122123E0,2.064667E-2,1.3373442E0,2.2011498E-2,3.4927917E-1,1.0977237E0,6.696861E-1,3.2175292E-4,1.4849434E0,0E0,2.038487E-1,7.100792E-1,0E0,1.0589727E-1,0E0,4.2529345E-1,0E0,1.4228005E0,0E0,6.155255E-1,0E0,1.0227882E-1,0E0,3.08012E-1,0E0,8.1199974E-2,0E0,1.643753E-2,0E0,0E0,0E0,0E0,0E0,0E0,1.8073194E0,5.116936E-1,0E0,0E0,0E0,0E0,0E0,0E0,0E0,0E0,0E0,0E0,0E0,0E0,0E0],"parents":[2147483647,0,0,1,1,2,2,3,3,4,4,5,5,6,6,7,7,8,8,9,9,10,10,11,11,12,12,13,13,14,14,16,16,17,17,19,19,21,21,23,23,25,25,27,27,29,29,31,31,33,33,40,40,41,41],"right_children":[2,4,6,8,10,12,14,-1,18,-1,-1,24,26,-1,30,-1,-1,34,-1,-1,-1,-1,-1,40,-1,42,-1,-1,-1,-1,-1,-1,-1,-1,-1,-1,-1,-1,-1,-1,52,-1,-1,-1,-1,-1,-1,-1,-1,-1,-1,-1,-1,-1,-1],"split_conditions":[2.55E-2,8.775986E4,5E-1,2.25E-2,3.825E2,5.65E-1,3.94E2,-0E0,3.84E2,-0E0,2.9680688E-2,4.2605E0,6.6549997E0,-0E0,8.8E-1,3.6904293E-3,-5.05331E-3,9.04E2,-0E0,-6.735594E-3,-0E0,3.6507215E-2,-0E0,4.7500002E-1,-0E0,5E-1,-0E0,-9.7592734E-4,-0E0,5.926899E-2,-0E0,-1.9875439E-2,-0E0,-8.2693085E-2,-0E0,-1.813954E-2,-0E0,-0E0,4.7804203E-2,-0E0,4.755E2,5.447449E-2,-0E0,-2.028101E-2,-0E0,-0E0,6.1630968E-2,-2.5420928E-2,-0E0,-0E0,-8.439606E-2,-6.2122405E-2,-0E0,6.957799E-2,-0E0],"split_indices":[5,9,0,4,2,11,2,8,8,8,4,4,11,9,11,2147483647,2147483647,2,0,2147483647,2147483647,2147483647,2147483647,4,0,13,0,2147483647,2147483647,12,0,2147483647,2147483647,2,0,2147483647,2147483647,2147483647,2147483647,0,8,2,0,2147483647,2147483647,2147483647,2147483647,2147483647,2147483647,2147483647,2147483647,0,0,2147483647,2147483647],"split_type":[0,0,0,0,0,0,0,0,0,0,0,0,0,0,0,0,0,0,0,0,0,0,0,0,0,0,0,0,0,0,0,0,0,0,0,0,0,0,0,0,0,0,0,0,0,0,0,0,0,0,0,0,0,0,0],"sum_hessian":[1.3493517E2,6.374088E1,7.119429E1,4.337539E1,2.036549E1,3.6628178E1,3.4566113E1,9.37686E0,3.399853E1,8.982647E0,1.1382843E1,2.3167992E1,1.3460185E1,5.1465626E0,2.941955E1,2.4148881E0,6.961971E0,2.8377138E1,5.621392E0,4.870608E0,4.112039E0,1.03558855E1,1.0269576E0,2.0856497E1,2.3114948E0,1.0861206E1,2.5989788E0,3.0876424E0,2.05892E0,2.662364E1,2.7959101E0,5.7586384E0,1.2033327E0,2.4890772E1,3.4863663E0,3.7036304E0,1.1669778E0,2.4811516E0,7.8747344E0,3.7696126E0,1.7086885E1,6.0338116E0,4.8273945E0,2.0182562E0,1.0693864E0,1.0955586E0,2.552808E1,4.6519217E0,1.1067164E0,1.0063964E0,2.3884377E1,1.4991633E1,2.0952516E0,4.590493E0,1.4433185E0],"tree_param":{"num_deleted":"24","num_feature":"17","num_nodes":"55","size_leaf_vector":"0"}},{"base_weights":[-1.3869622E-2,-6.890755E-1,6.104691E-2,-8.018592E-1,-0E0,-5.2880533E-2,2.2942278E-1,2.0371476E-2,-3.126638E-1,-0E0,3.6470258E-1,-1.8763977E-1,1.9386151E-1,-3.9456818E-1,-0E0,-3.1845767E-2,1.7544128E-1,-0E0,4.51428E-1,-0E0,-4.6773538E-1,3.972687E-1,-0E0,-0E0,-5.692131E-1,-4.0396562E-1,-0E0,-0E0,3.3475184E-1,5.698167E-1,-0E0,4.959736E-1,-0E0,-0E0,-1.2201324E-1,-0E0,-7.497388E-1,1.0713078E-1,-0E0,-0E0,6.4178056E-1],"categories":[],"categories_nodes":[],"categories_segments":[],"categories_sizes":[],"default_left":[1,1,1,0,0,1,1,1,1,1,1,1,1,1,0,1,1,0,1,0,0,1,1,0,1,0,1,1,1,1,0,0,0,1,1,0,0,1,1,0,0],"id":23,"left_children":[1,3,5,-1,-1,7,9,11,13,15,17,19,21,23,-1,25,-1,-1,29,-1,-1,31,-1,-1,35,-1,-1,-1,-1,39,-1,-1,-1,-1,-1,-1,-1,-1,-1,-1,-1],"loss_changes":[9.015393E0,1.1504078E0,2.870863E0,0E0,0E0,2.134782E0,1.2537982E0,1.3479561E0,8.533101E-1,3.9636973E-1,1.3230653E0,9.2167115E-1,1.9941026E0,1.4133313E0,0E0,1.5884259E0,5.7828933E-1,0E0,1.3296394E0,0E0,0E0,1.0966606E0,1.2057065E-1,0E0,1.889391E0,0E0,7.2549E-2,0E0,0E0,1.018158E0,0E0,0E0,0E0,0E0,0E0,0E0,0E0,0E0,0E0,0E0,0E0],"parents":[2147483647,0,0,1,1,2,2,5,5,6,6,7,7,8,8,9,9,10,10,11,11,12,12,13,13,15,15,16,16,18,18,21,21,22,22,24,24,26,26,29,29],"right_children":[2,4,6,-1,-1,8,10,12,14,16,18,20,22,24,-1,26,-1,-1,30,-1,-1,32,-1,-1,36,-1,-1,-1,-1,40,-1,-1,-1,-1,-1,-1,-1,-1,-1,-1,-1],"split_conditions":[7.5000003E-3,3.5500002E-1,6.1499998E-2,-8.820451E-2,-0E0,4.75E1,3.1934121E4,1.693E1,4.455E2,6.025E2,1.45E-2,1.267E1,5E-1,1.4500001E-1,-0E0,1.095E2,1.929854E-2,-0E0,6.05E-2,-0E0,-5.1450893E-2,7.2E-2,-0E0,-0E0,1.3E-2,-4.4436216E-2,-0E0,-0E0,3.6822703E-2,1.5E0,-0E0,5.4557092E-2,-0E0,-0E0,-1.3421456E-2,-0E0,-8.247127E-2,1.1784386E-2,-0E0,-0E0,7.059586E-2],"split_indices":[6,7,6,0,0,8,9,12,8,2,5,12,13,7,0,8,5,0,3,0,0,5,12,0,6,0,9,2147483647,2147483647,8,0,0,0,2147483647,2147483647,0,0,2147483647,2147483647,0,0],"split_type":[0,0,0,0,0,0,0,0,0,0,0,0,0,0,0,0,0,0,0,0,0,0,0,0,0,0,0,0,0,0,0,0,0,0,0,0,0,0,0,0,0],"sum_hessian":[1.329399E2,1.7124187E1,1.1581571E2,1.4173494E1,2.9506924E0,5.708777E1,5.872794E1,3.4740643E1,2.234713E1,2.6665504E1,3.206244E1,6.587147E0,2.8153494E1,1.9141394E1,3.2057366E0,1.532576E1,1.1339745E1,4.990845E0,2.7071592E1,2.1532679E0,4.4338794E0,1.857743E1,9.576063E0,6.1013455E0,1.3040048E1,8.835162E0,6.4905977E0,3.7897475E0,7.5499964E0,2.0713783E1,6.357809E0,1.6018663E1,2.558766E0,2.4771323E0,7.098931E0,2.5859983E0,1.0454049E1,5.321248E0,1.1693493E0,2.124619E0,1.8589165E1],"tree_param":{"num_deleted":"6","num_feature":"17","num_nodes":"41","size_leaf_vector":"0"}},{"base_weights":[-1.19115915E-2,-6.5849656E-1,5.375063E-2,-7.3106176E-1,-0E0,-6.282575E-2,2.2607855E-1,-7.90293E-1,-0E0,-1.8868534E-1,6.638896E-2,3.079949E-1,-0E0,-3.346075E-1,-0E0,2.8100142E-1,-0E0,4.3825817E-1,-0E0,-1.1347171E-1,-0E0,-0E0,-3.8325304E-1,8.3189815E-2,-0E0,4.5838162E-1,-0E0,5.073091E-1,-0E0,-7.155651E-2,8.181167E-2,-0E0,-4.4739193E-1,1.0401846E-1,-0E0,7.139559E-1,-0E0,1.5139365E-1,8.4170103E-1,-1.8973252E-1,-0E0],"categories":[],"categories_nodes":[],"categories_segments":[],"categories_sizes":[],"default_left":[1,1,1,1,0,1,1,0,0,1,1,1,1,1,1,1,0,1,1,1,1,0,1,1,1,1,0,1,0,1,1,0,0,1,1,0,0,0,0,1,1],"id":24,"left_children":[1,3,5,7,-1,9,11,-1,-1,13,15,17,-1,21,-1,25,-1,27,-1,-1,-1,-1,31,-1,-1,35,-1,37,-1,-1,-1,-1,-1,-1,-1,-1,-1,-1,-1,-1,-1],"loss_changes":[7.745003E0,1.1805472E0,2.9079485E0,7.612791E-1,0E0,1.3776764E0,1.9137719E0,0E0,0E0,2.1766124E0,8.322481E-1,2.2995653E0,5.9538994E-2,8.3451295E-1,5.220351E-2,1.1175714E0,0E0,2.085338E0,9.051218E-2,0E0,0E0,0E0,8.580837E-1,4.58562E-3,0E0,1.1067924E0,0E0,7.035408E-1,0E0,2.0072919E-1,0E0,0E0,0E0,0E0,0E0,0E0,0E0,0E0,0E0,0E0,0E0],"parents":[2147483647,0,0,1,1,2,2,3,3,5,5,6,6,9,9,10,10,11,11,12,12,13,13,14,14,15,15,17,17,18,18,22,22,23,23,25,25,27,27,29,29],"right_children":[2,4,6,8,-1,10,12,-1,-1,14,16,18,-1,22,-1,26,-1,28,-1,-1,-1,-1,32,-1,-1,36,-1,38,-1,-1,-1,-1,-1,-1,-1,-1,-1,-1,-1,-1,-1],"split_conditions":[7.5000003E-3,7.615E0,5E-1,9.6965E2,-0E0,1.375E0,8.6E-1,-8.693223E-2,-0E0,7.335E2,6.6549997E0,1.6085E0,-0E0,1.5E-2,-0E0,9.185E2,-0E0,1.23E0,-0E0,-1.2481888E-2,-0E0,-0E0,2.6635E2,9.150879E-3,-0E0,5E-1,-0E0,6.1499998E-2,-0E0,-7.871216E-3,8.999283E-3,-0E0,-4.921311E-2,1.144203E-2,-0E0,7.853515E-2,-0E0,1.6653301E-2,9.258711E-2,-2.0870578E-2,-0E0],"split_indices":[6,11,0,2,0,11,11,0,0,2,11,4,6,10,2,2,0,10,2,2147483647,2147483647,0,2,2147483647,2147483647,13,0,6,0,2147483647,2147483647,0,0,2147483647,2147483647,0,0,0,0,2147483647,2147483647],"split_type":[0,0,0,0,0,0,0,0,0,0,0,0,0,0,0,0,0,0,0,0,0,0,0,0,0,0,0,0,0,0,0,0,0,0,0,0,0,0,0,0,0],"sum_hessian":[1.3073569E2,1.6134232E1,1.14601456E2,1.5110456E1,1.0237747E0,5.662267E1,5.7978786E1,1.4004946E1,1.105511E0,4.217207E1,1.4450603E1,5.0952583E1,7.026204E0,3.2168625E1,1.0003446E1,1.0402305E1,4.0482974E0,3.66312E1,1.4321385E1,3.6240902E0,3.4021137E0,2.2041967E0,2.9964426E1,6.543265E0,3.4601805E0,8.603933E0,1.7983717E0,3.518697E1,1.4442265E0,1.0908131E1,3.4132543E0,3.9548328E0,2.6009594E1,4.248611E0,2.294654E0,5.1300917E0,3.4738414E0,2.2818857E1,1.2368114E1,6.269839E0,4.6382923E0],"tree_param":{"num_deleted":"10","num_feature":"17","num_nodes":"41","size_leaf_vector":"0"}},{"base_weights":[-7.8002424E-3,-6.2567616E-1,4.8859227E-2,-7.00713E-1,-0E0,-1.3591917E-2,2.5904256E-1,-7.61684E-1,-0E0,2.1730566E-1,-1.5300657E-1,3.4625304E-1,-0E0,4.7688347E-1,-4.03589E-2,-4.1328546E-1,-0E0,5.1082355E-1,-0E0,-5.197119E-4,-0E0,6.760663E-1,-0E0,-5.5225015E-1,-0E0,1.11641556E-1,-9.572408E-2,5.418052E-1,-0E0,-0E0,1.3332881E-1,7.620635E-1,-0E0,-0E0,-5.770781E-1,-0E0,3.0882615E-1,-3.4556395E-1,-0E0,-0E0,2.6320413E-1],"categories":[],"categories_nodes":[],"categories_segments":[],"categories_sizes":[],"default_left":[1,1,1,1,0,1,1,0,0,1,1,1,1,1,0,1,1,1,1,1,1,1,0,1,0,1,1,1,1,1,1,0,0,1,1,0,0,0,0,1,1],"id":25,"left_children":[1,3,5,7,-1,9,11,-1,-1,13,15,-1,-1,21,-1,23,25,-1,-1,-1,-1,31,-1,-1,-1,35,37,-1,-1,-1,-1,-1,-1,-1,-1,-1,-1,-1,-1,-1,-1],"loss_changes":[6.590068E0,1.1052809E0,2.3661397E0,7.0785236E-1,0E0,2.268177E0,1.4335084E0,0E0,0E0,2.8668325E0,1.6060503E0,5.385747E-1,1.211458E-6,2.4699497E0,0E0,1.1724343E0,4.26256E-1,1.4219809E-1,2.6722813E-1,0E0,0E0,8.0543137E-1,0E0,4.3553352E-2,0E0,7.3789024E-1,1.0057849E0,0E0,0E0,0E0,4.5452136E-1,0E0,0E0,0E0,0E0,0E0,0E0,0E0,0E0,0E0,0E0],"parents":[2147483647,0,0,1,1,2,2,3,3,5,5,6,6,9,9,10,10,11,11,12,12,13,13,15,15,16,16,17,17,18,18,21,21,23,23,25,25,26,26,30,30],"right_children":[2,4,6,8,-1,10,12,-1,-1,14,16,-1,-1,22,-1,24,26,-1,-1,-1,-1,32,-1,-1,-1,36,38,-1,-1,-1,-1,-1,-1,-1,-1,-1,-1,-1,-1,-1,-1],"split_conditions":[7.5000003E-3,7.615E0,1.185E-1,9.6965E2,-0E0,2.065E-1,7.6E-1,-8.3785236E-2,-0E0,6.95E-1,6.5E-3,3.8087834E-2,-0E0,3.8E-1,-4.439479E-3,3.9499998E-2,1.15E-2,5.619059E-2,-0E0,-5.7168305E-5,-0E0,2.78E2,-0E0,-6.0747515E-2,-0E0,1.7310001E1,5.5E-2,5.9598573E-2,-0E0,-0E0,1.4666169E-2,8.382698E-2,-0E0,-0E0,-6.347859E-2,-0E0,3.3970878E-2,-3.8012035E-2,-0E0,-0E0,2.8952453E-2],"split_indices":[6,11,6,2,0,4,10,0,0,10,3,4,4,11,0,6,3,2147483647,2147483647,2147483647,2147483647,8,0,12,0,12,10,2147483647,2147483647,2147483647,2147483647,0,0,2147483647,2147483647,0,0,0,0,2147483647,2147483647],"split_type":[0,0,0,0,0,0,0,0,0,0,0,0,0,0,0,0,0,0,0,0,0,0,0,0,0,0,0,0,0,0,0,0,0,0,0,0,0,0,0,0,0],"sum_hessian":[1.2870094E2,1.5155781E1,1.13545166E2,1.4132007E1,1.0237747E0,7.5419266E1,3.81259E1,1.3026495E1,1.105511E0,1.8731922E1,5.6687344E1,3.28555E1,5.270399E0,1.5674149E1,3.0577738E0,1.6309631E1,4.0377712E1,1.6619137E1,1.6236362E1,3.4852128E0,1.7851862E0,1.2700328E1,2.973821E0,1.2538591E1,3.7710388E0,1.0495849E1,2.9881863E1,1.5146147E1,1.4729902E0,2.2037613E0,1.4032602E1,1.1169594E1,1.5307338E0,1.0091119E0,1.152948E1,2.2566805E0,8.239168E0,9.792317E0,2.0089546E1,4.6142006E0,9.418402E0],"tree_param":{"num_deleted":"12","num_feature":"17","num_nodes":"41","size_leaf_vector":"0"}},{"base_weights":[-9.990965E-3,-2.606166E-1,1.5419497E-1,-0E0,-4.9395272E-1,4.055834E-1,-0E0,-6.382921E-2,1.6121903E-2,-0E0,-6.30928E-1,5.434734E-1,-0E0,-1.36517E-1,9.5349066E-2,-2.3145972E-1,-0E0,-0E0,3.0544496E-1,-6.94875E-1,-0E0,-0E0,6.2488484E-1,-0E0,-2.3879868E-1,-0E0,2.0516504E-1,-0E0,-3.405901E-1,-0E0,-6.414411E-4,-0E0,5.2441174E-1,-0E0,7.8878194E-1,-4.5551148E-1,-0E0,-0E0,2.8840157E-1,-5.311943E-1,-0E0,-2.227779E-1,-0E0,3.651977E-2,-0E0,-0E0,-5.5237234E-1,3.8414448E-1,-0E0],"categories":[],"categories_nodes":[],"categories_segments":[],"categories_sizes":[],"default_left":[1,1,1,1,1,1,1,1,1,0,1,1,0,1,1,1,0,1,1,1,1,0,1,0,1,0,1,0,1,1,1,0,0,1,1,1,0,0,1,0,0,1,1,1,1,1,1,0,0],"id":26,"left_children":[1,3,5,7,9,11,13,15,17,-1,-1,21,-1,23,25,27,-1,-1,31,-1,-1,-1,-1,-1,35,-1,37,-1,39,-1,-1,-1,-1,-1,-1,-1,-1,-1,47,-1,-1,-1,-1,-1,-1,-1,-1,-1,-1],"loss_changes":[5.66542E0,3.150566E0,2.84617E0,7.703357E-2,1.6481867E0,2.5222416E0,5.888467E-1,7.424515E-1,5.9240305E-1,0E0,2.6508617E-1,9.08072E-1,0E0,4.490063E-1,6.446202E-1,7.469674E-1,0E0,2.5560632E-6,8.2440263E-1,0E0,0E0,0E0,4.1518927E-1,0E0,1.0187767E0,0E0,6.93499E-1,0E0,1.0496322E0,0E0,2.4587819E-1,0E0,0E0,8.37456E-3,0E0,3.9507687E-1,0E0,0E0,9.261204E-1,0E0,0E0,0E0,0E0,0E0,0E0,0E0,0E0,0E0,0E0],"parents":[2147483647,0,0,1,1,2,2,3,3,4,4,5,5,6,6,7,7,8,8,10,10,11,11,13,13,14,14,15,15,17,17,18,18,22,22,24,24,26,26,28,28,30,30,33,33,35,35,38,38],"right_children":[2,4,6,8,10,12,14,16,18,-1,-1,22,-1,24,26,28,-1,-1,32,-1,-1,-1,-1,-1,36,-1,38,-1,40,-1,-1,-1,-1,-1,-1,-1,-1,-1,48,-1,-1,-1,-1,-1,-1,-1,-1,-1,-1],"split_conditions":[3.85E-2,1.6E-1,9.4500005E-1,8.5E0,2.05E1,7.5E-1,1.415E-1,2.7494999E1,6.5E-2,-0E0,-6.940208E-2,1.25E-1,-0E0,1.85E1,1.85E-1,4.9000002E-2,-0E0,-0E0,9.5E-2,-7.643625E-2,-0E0,-0E0,6.8737336E-2,-0E0,8.65E1,-0E0,3.5E0,-0E0,2E1,-0E0,-7.055852E-5,-0E0,5.768529E-2,-0E0,8.676601E-2,-5.010626E-2,-0E0,-0E0,3.0105E-1,-5.8431376E-2,-0E0,-2.4505569E-2,-0E0,4.0171747E-3,-0E0,-0E0,-6.0760956E-2,4.2255893E-2,-0E0],"split_indices":[6,10,4,1,8,10,6,12,10,0,12,7,0,8,7,4,0,7,7,2147483647,2147483647,0,12,0,8,0,1,0,8,2147483647,2147483647,0,0,2147483647,2147483647,1,0,0,3,0,0,2147483647,2147483647,2147483647,2147483647,2147483647,2147483647,0,0],"split_type":[0,0,0,0,0,0,0,0,0,0,0,0,0,0,0,0,0,0,0,0,0,0,0,0,0,0,0,0,0,0,0,0,0,0,0,0,0,0,0,0,0,0,0,0,0,0,0,0,0],"sum_hessian":[1.2665152E2,5.8334843E1,6.831668E1,2.9904663E1,2.843018E1,2.6321012E1,4.1995667E1,1.7022152E1,1.2882512E1,7.2510858E0,2.1179094E1,2.2755453E1,3.5655603E0,1.8785612E1,2.3210052E1,1.422908E1,2.793071E0,7.494163E0,5.388349E0,1.7833797E1,3.345297E0,3.461092E0,1.9294361E1,5.4453855E0,1.3340226E1,3.6667128E0,1.954334E1,1.7564714E0,1.24726095E1,2.2817824E0,5.2123804E0,1.2233515E0,4.1649976E0,6.8902125E0,1.2404148E1,7.851121E0,5.489105E0,1.8091658E0,1.7734175E1,8.258605E0,4.2140045E0,3.9542775E0,1.258103E0,5.2792234E0,1.6109891E0,1.5371549E0,6.3139663E0,1.5835366E1,1.8988085E0],"tree_param":{"num_deleted":"12","num_feature":"17","num_nodes":"49","size_leaf_vector":"0"}},{"base_weights":[-9.406583E-3,-5.7492274E-1,3.4202788E-2,-6.515494E-1,-0E0,-8.518254E-2,1.6329484E-1,-7.1662194E-1,-0E0,-2.772337E-1,1.2291932E-1,-0E0,2.7770907E-1,-5.030839E-1,-0E0,-0E0,2.9948875E-1,-0E0,3.322988E-2,3.4350583E-1,-0E0,-0E0,-5.658367E-1,-0E0,8.160841E-2,-0E0,4.534167E-1,-1.16202295E-1,-0E0,-0E0,3.1032908E-1,-0E0,4.003838E-1,-0E0,-6.455085E-1,-2.07261E-1,-0E0,1.9626632E-1,-0E0,-0E0,-3.2433286E-1,-0E0,1.4902924E-1,3.9036474E-1,-0E0,-0E0,4.3565062E-1],"categories":[],"categories_nodes":[],"categories_segments":[],"categories_sizes":[],"default_left":[1,1,1,1,0,1,1,0,0,1,1,1,1,1,1,0,1,1,1,1,0,0,1,1,1,0,0,1,1,0,1,0,1,0,0,1,1,1,1,0,0,1,1,1,1,1,1],"id":27,"left_children":[1,3,5,7,-1,9,11,-1,-1,13,15,17,19,21,-1,-1,25,27,29,31,-1,-1,33,-1,-1,-1,-1,39,-1,-1,-1,-1,-1,-1,-1,-1,-1,-1,-1,-1,-1,-1,-1,-1,-1,-1,-1],"loss_changes":[5.008048E0,9.3836975E-1,2.0094573E0,6.594639E-1,0E0,2.357697E0,9.612603E-1,0E0,0E0,2.5135176E0,8.5487163E-1,9.655178E-3,7.7769256E-1,1.0024657E0,5.5984206E-2,0E0,8.739393E-1,1.3355051E-1,6.9866914E-1,9.270618E-1,0E0,0E0,1.1455898E0,1.9780387E-1,1.8293065E-1,0E0,0E0,7.679715E-1,2.0049676E-1,0E0,2.527476E-1,0E0,3.907113E-1,0E0,0E0,0E0,0E0,0E0,0E0,0E0,0E0,0E0,0E0,0E0,0E0,0E0,0E0],"parents":[2147483647,0,0,1,1,2,2,3,3,5,5,6,6,9,9,10,10,11,11,12,12,13,13,14,14,16,16,17,17,18,18,19,19,22,22,23,23,24,24,27,27,28,28,30,30,32,32],"right_children":[2,4,6,8,-1,10,12,-1,-1,14,16,18,20,22,-1,-1,26,28,30,32,-1,-1,34,-1,-1,-1,-1,40,-1,-1,-1,-1,-1,-1,-1,-1,-1,-1,-1,-1,-1,-1,-1,-1,-1,-1,-1],"split_conditions":[7.5000003E-3,7.255E0,3.5628062E4,9.6965E2,-0E0,7.335E2,4.45E-2,-7.882841E-2,-0E0,1.205E2,1.45E-2,1.11450984E5,6.05E-2,2.3965E2,-0E0,-0E0,3.5E0,1.55E1,1.79E2,1.05E-2,-0E0,-0E0,1.1096686E4,-0E0,8.976925E-3,-0E0,4.9875837E-2,3.9963414E4,-0E0,-0E0,3.41362E-2,-0E0,4.404222E-2,-0E0,-7.100594E-2,-2.279871E-2,-0E0,2.1589296E-2,-0E0,-0E0,-3.5676613E-2,-0E0,1.6393216E-2,4.294012E-2,-0E0,-0E0,4.792157E-2],"split_indices":[6,11,9,2,0,2,6,0,0,8,5,9,3,2,3,0,1,8,2,5,0,0,9,2147483647,2147483647,0,0,9,5,0,11,0,8,0,0,2147483647,2147483647,2147483647,2147483647,0,0,2147483647,2147483647,2147483647,2147483647,2147483647,2147483647],"split_type":[0,0,0,0,0,0,0,0,0,0,0,0,0,0,0,0,0,0,0,0,0,0,0,0,0,0,0,0,0,0,0,0,0,0,0,0,0,0,0,0,0,0,0,0,0,0,0],"sum_hessian":[1.24532776E2,1.37894125E1,1.1074336E2,1.27257395E1,1.0636735E0,4.3625687E1,6.7117676E1,1.163033E1,1.0954089E0,3.1261679E1,1.2364009E1,3.2101746E1,3.501593E1,1.8728298E1,1.253338E1,1.5817695E0,1.078224E1,2.4357893E1,7.743852E0,2.9130825E1,5.885103E0,1.0021659E0,1.7726133E1,5.1272583E0,7.4061217E0,2.390923E0,8.391316E0,8.8904505E0,1.5467442E1,1.388775E0,6.3550773E0,2.169596E0,2.696123E1,1.587954E0,1.613818E1,3.6046815E0,1.5225767E0,5.2022834E0,2.203838E0,1.3201829E0,7.5702677E0,7.440006E0,8.027436E0,5.306882E0,1.0481952E0,2.285166E0,2.4676064E1],"tree_param":{"num_deleted":"12","num_feature":"17","num_nodes":"47","size_leaf_vector":"0"}},{"base_weights":[-5.624231E-3,-2.012457E-1,1.0869605E-1,-4.1804588E-1,-0E0,-0E0,3.3259362E-1,-0E0,-5.6307465E-1,2.3205212E-1,-7.155147E-2,-8.5611895E-2,8.728768E-2,4.4755343E-1,-0E0,5.3711E-2,-0E0,-0E0,-7.2699726E-1,-0E0,3.913549E-1,-0E0,-1.8369217E-1,-0E0,-2.8663883E-1,-0E0,1.8690039E-1,5.108157E-1,-0E0,-8.001934E-1,-0E0,-0E0,-2.5154418E-1,1.0888035E-1,-0E0,-4.411222E-1,-0E0,3.2967135E-1,-0E0,-0E0,6.294813E-1,-0E0,-8.3892477E-1,-0E0,-2.9565153E-1,2.2929299E-1,-0E0,-6.154722E-1,-0E0,3.965711E-1,-0E0,-0E0,7.578029E-1],"categories":[],"categories_nodes":[],"categories_segments":[],"categories_sizes":[],"default_left":[1,1,1,1,1,1,1,1,1,1,1,1,1,1,0,1,1,0,1,0,0,1,1,1,1,0,1,1,0,1,0,1,1,1,1,1,0,1,0,0,1,1,1,1,1,1,1,0,0,1,1,0,0],"id":28,"left_children":[1,3,5,7,9,11,13,-1,17,19,-1,23,25,27,-1,-1,-1,-1,29,-1,-1,-1,-1,-1,35,-1,37,39,-1,-1,-1,-1,-1,-1,-1,47,-1,-1,-1,-1,51,-1,-1,-1,-1,-1,-1,-1,-1,-1,-1,-1,-1],"loss_changes":[3.11792E0,2.670895E0,1.853205E0,2.396998E0,5.7571995E-1,3.398683E-1,1.1939702E0,1.1826091E-2,1.888722E0,6.672275E-1,4.0609753E-1,1.3335412E0,4.4482952E-1,6.4808106E-1,0E0,0E0,0E0,0E0,1.2156906E0,0E0,0E0,0E0,3.5638243E-1,8.232757E-2,1.7314363E0,0E0,7.6203156E-1,3.6976767E-1,0E0,4.770279E-3,0E0,0E0,2.3973638E-1,1.9898906E-1,0E0,2.5573597E0,0E0,4.2338884E-1,0E0,0E0,7.2855043E-1,0E0,0E0,0E0,0E0,0E0,0E0,0E0,0E0,0E0,0E0,0E0,0E0],"parents":[2147483647,0,0,1,1,2,2,3,3,4,4,5,5,6,6,7,7,8,8,9,9,10,10,11,11,12,12,13,13,18,18,22,22,23,23,24,24,26,26,27,27,29,29,32,32,33,33,35,35,37,37,40,40],"right_children":[2,4,6,8,10,12,14,-1,18,20,-1,24,26,28,-1,-1,-1,-1,30,-1,-1,-1,-1,-1,36,-1,38,40,-1,-1,-1,-1,-1,-1,-1,48,-1,-1,-1,-1,52,-1,-1,-1,-1,-1,-1,-1,-1,-1,-1,-1,-1],"split_conditions":[2.55E-2,8.5E0,2.3045E1,1.9499999E-2,1.9E1,8.5E0,5E-1,-0E0,7.5E-2,7.5000003E-3,-7.870662E-3,1.5E0,3.15E-2,7.4E-1,-0E0,5.90821E-3,-0E0,-0E0,4.025E0,-0E0,4.3049037E-2,-0E0,-2.0206138E-2,-0E0,5.965E2,-0E0,6.25E-2,3.7E-2,-0E0,-8.802128E-2,-0E0,-0E0,-2.766986E-2,1.1976838E-2,-0E0,4.2605E0,-0E0,3.626385E-2,-0E0,-0E0,2.408E1,-0E0,-9.228172E-2,-0E0,-3.252167E-2,2.5222229E-2,-0E0,-6.770194E-2,-0E0,4.362282E-2,-0E0,-0E0,8.335832E-2],"split_indices":[5,1,12,4,8,1,13,8,10,5,1,1,5,10,0,2147483647,2147483647,0,4,0,0,2147483647,2147483647,14,8,0,3,5,0,8,0,2147483647,2147483647,2147483647,2147483647,4,0,4,0,0,12,2147483647,2147483647,2147483647,2147483647,2147483647,2147483647,0,0,2147483647,2147483647,0,0],"split_type":[0,0,0,0,0,0,0,0,0,0,0,0,0,0,0,0,0,0,0,0,0,0,0,0,0,0,0,0,0,0,0,0,0,0,0,0,0,0,0,0,0,0,0,0,0,0,0,0,0,0,0,0,0],"sum_hessian":[1.22957405E2,5.636414E1,6.659326E1,2.7576706E1,2.8787434E1,4.3620712E1,2.2972551E1,5.26474E0,2.2311966E1,7.5801845E0,2.120725E1,2.5652018E1,1.7968695E1,1.8199701E1,4.77285E0,3.0993474E0,2.1653926E0,5.7539463E0,1.655802E1,1.2070782E0,6.373106E0,6.802782E0,1.4404469E1,8.043809E0,1.760821E1,2.0970945E0,1.58716E1,1.6222294E1,1.9774073E0,1.5391359E1,1.166661E0,1.5572975E0,1.2847171E1,5.944585E0,2.0992239E0,1.5754925E1,1.8532846E0,1.1434178E1,4.4374223E0,4.948055E0,1.127424E1,1.4717915E0,1.3919567E1,1.0807683E0,1.1766402E1,4.35074E0,1.5938447E0,1.4357942E1,1.3969834E0,1.028499E1,1.1491877E0,2.5362701E0,8.737969E0],"tree_param":{"num_deleted":"16","num_feature":"17","num_nodes":"53","size_leaf_vector":"0"}},{"base_weights":[-0E0,-5.270818E-1,3.6592305E-2,-6.602034E-1,-0E0,-5.8854204E-2,1.9396296E-1,-1.8699221E-1,2.3985399E-2,2.6717344E-1,-0E0,-0E0,-3.807323E-1,-0E0,2.4683957E-1,3.103759E-1,-0E0,1.5242362E-1,-0E0,-5.7326156E-1,-0E0,3.3576122E-1,-0E0,-0E0,3.4463865E-1,-0E0,2.2783934E-1,-0E0,-6.5293455E-1,4.3073925E-1,-0E0,-0E0,3.6884835E-1],"categories":[],"categories_nodes":[],"categories_segments":[],"categories_sizes":[],"default_left":[1,1,1,0,0,1,1,1,1,1,0,1,1,0,1,1,0,1,1,1,0,1,1,0,1,1,1,0,0,1,1,1,1],"id":29,"left_children":[1,3,5,-1,-1,7,9,11,13,15,-1,-1,19,-1,-1,23,-1,-1,-1,27,-1,-1,-1,-1,-1,-1,-1,-1,-1,-1,-1,-1,-1],"loss_changes":[3.9198678E0,1.0266728E0,2.1306849E0,0E0,0E0,1.1604389E0,1.5504398E0,2.3495893E0,6.6114426E-1,9.83243E-1,0E0,2.7299678E-1,2.4019992E0,0E0,4.254933E-1,9.0898037E-1,0E0,2.0159784E-1,0E0,7.240124E-1,0E0,3.1986344E-1,0E0,0E0,5.330787E-1,0E0,0E0,0E0,0E0,0E0,0E0,0E0,0E0],"parents":[2147483647,0,0,1,1,2,2,5,5,6,6,7,7,8,8,9,9,11,11,12,12,14,14,15,15,17,17,19,19,21,21,24,24],"right_children":[2,4,6,-1,-1,8,10,12,14,16,-1,-1,20,-1,-1,24,-1,-1,-1,28,-1,-1,-1,-1,-1,-1,-1,-1,-1,-1,-1,-1,-1],"split_conditions":[7.5000003E-3,3.5500002E-1,5E-1,-7.262237E-2,-0E0,8.05E-1,1.425E0,2.05E1,3.25E-2,2.8400002E1,-0E0,-0E0,1.225E-1,-0E0,2.7152352E-2,8.5E-2,-0E0,1.6766598E-2,-0E0,9.5E-2,-0E0,3.6933735E-2,-0E0,-0E0,3.791025E-2,-0E0,2.5062326E-2,-0E0,-7.18228E-2,4.738132E-2,-0E0,-0E0,4.0573318E-2],"split_indices":[6,7,0,0,0,11,11,8,5,12,0,11,5,0,7,7,0,2147483647,2147483647,7,0,2147483647,2147483647,0,12,2147483647,2147483647,0,0,2147483647,2147483647,2147483647,2147483647],"split_type":[0,0,0,0,0,0,0,0,0,0,0,0,0,0,0,0,0,0,0,0,0,0,0,0,0,0,0,0,0,0,0,0,0],"sum_hessian":[1.21190926E2,1.2581333E1,1.0860959E2,1.0011976E1,2.569357E0,5.41517E1,5.4457893E1,3.7358242E1,1.6793459E1,4.994946E1,4.5084343E0,1.2896727E1,2.4461515E1,6.77453E0,1.0018929E1,4.695957E1,2.9898872E0,1.075041E1,2.1463172E0,1.7540148E1,6.921367E0,8.729617E0,1.2893114E0,1.4090158E0,4.5550556E1,2.607901E0,8.1425085E0,2.5503232E0,1.4989824E1,6.6359043E0,2.0937128E0,1.9919536E0,4.35586E1],"tree_param":{"num_deleted":"10","num_feature":"17","num_nodes":"33","size_leaf_vector":"0"}},{"base_weights":[-0E0,-1.8698204E-1,6.953088E-2,-0E0,-3.7375382E-1,3.900361E-1,-0E0,3.0712217E-1,-0E0,-4.1814303E-1,-0E0,4.5100704E-1,-0E0,-9.1162436E-2,1.8235575E-2,3.7295383E-1,-0E0,-1.965959E-1,-0E0,-0E0,-4.548466E-1,-0E0,5.934872E-1,-0E0,-2.890899E-1,2.2057833E-1,-0E0,-0E0,4.3447223E-1,-0E0,3.4118414E-2,-0E0,-3.9150885E-1,-0E0,3.395964E-1,-1.143773E-1,-0E0,1.4284676E-1,-0E0,-4.4963437E-1,-0E0,-0E0,4.3937695E-1,-3.0737767E-1,-0E0,1.6900654E-1,-0E0],"categories":[],"categories_nodes":[],"categories_segments":[],"categories_sizes":[],"default_left":[1,1,1,1,1,1,1,1,1,1,0,1,0,1,1,1,1,1,1,0,0,0,0,1,1,1,1,1,1,1,1,0,1,0,1,1,1,1,1,1,1,0,0,0,0,1,1],"id":30,"left_children":[1,3,5,7,9,11,13,-1,-1,19,-1,21,-1,23,25,-1,-1,-1,-1,-1,-1,-1,-1,-1,31,33,35,-1,-1,-1,-1,-1,-1,-1,41,43,-1,-1,-1,-1,-1,-1,-1,-1,-1,-1,-1],"loss_changes":[1.9820714E0,2.6831493E0,2.2194204E0,7.514292E-1,7.385206E-1,4.391098E-1,2.0010671E-1,1.523276E-1,2.3559122E-1,6.713824E-1,0E0,1.4702919E0,0E0,1.1659662E0,6.5710574E-1,5.487144E-3,0E0,0E0,0E0,0E0,0E0,0E0,0E0,6.8930164E-3,8.4774363E-1,6.791437E-1,2.458407E-1,0E0,0E0,0E0,9.2507824E-2,0E0,4.9860978E-1,0E0,6.061002E-1,9.8628926E-1,1.5520465E-1,0E0,0E0,0E0,0E0,0E0,0E0,0E0,0E0,0E0,0E0],"parents":[2147483647,0,0,1,1,2,2,3,3,4,4,5,5,6,6,7,7,8,8,9,9,11,11,13,13,14,14,15,15,23,23,24,24,25,25,26,26,30,30,32,32,34,34,35,35,36,36],"right_children":[2,4,6,8,10,12,14,-1,-1,20,-1,22,-1,24,26,-1,-1,-1,-1,-1,-1,-1,-1,-1,32,34,36,-1,-1,-1,-1,-1,-1,-1,42,44,-1,-1,-1,-1,-1,-1,-1,-1,-1,-1,-1],"split_conditions":[6.5E-3,1.55E1,6.7999995E-1,2.165E-1,3.75E-1,4.3E-1,5.5E-2,3.378344E-2,-0E0,5.5E-3,-0E0,2.6385E2,-0E0,1.55E-2,1.55E-1,4.102492E-2,-0E0,-2.162555E-2,-0E0,-0E0,-5.0033126E-2,-0E0,6.528359E-2,-0E0,3.46E2,1.05E-2,4.35E-1,-0E0,4.7791947E-2,-0E0,3.7530256E-3,-0E0,-4.3065973E-2,-0E0,6.5E0,7.5E0,-0E0,1.5713144E-2,-0E0,-4.945978E-2,-0E0,-0E0,4.8331466E-2,-3.3811543E-2,-0E0,1.859072E-2,-0E0],"split_indices":[3,8,4,4,7,10,10,1,4,4,0,2,0,3,10,2147483647,2147483647,2147483647,2147483647,0,0,0,0,4,2,3,7,2147483647,2147483647,2147483647,2147483647,0,3,0,8,1,1,2147483647,2147483647,2147483647,2147483647,0,0,0,0,2147483647,2147483647],"split_type":[0,0,0,0,0,0,0,0,0,0,0,0,0,0,0,0,0,0,0,0,0,0,0,0,0,0,0,0,0,0,0,0,0,0,0,0,0,0,0,0,0,0,0,0,0,0,0],"sum_hessian":[1.20046394E2,4.520435E1,7.484204E1,1.5432641E1,2.977171E1,1.5999365E1,5.8842678E1,6.966466E0,8.466175E0,2.780906E1,1.9626502E0,1.387258E1,2.126785E0,2.1546143E1,3.729654E1,5.4974265E0,1.4690396E0,5.095512E0,3.3706634E0,1.2166742E0,2.6592386E1,2.1095526E0,1.1763027E1,6.3526525E0,1.5193489E1,1.2767208E1,2.452933E1,1.6806518E0,3.8167748E0,1.4311538E0,4.921499E0,1.8335375E0,1.3359952E1,2.070037E0,1.0697171E1,1.7792048E1,6.7372823E0,3.8713493E0,1.0501496E0,1.2353498E1,1.0064527E0,1.5699327E0,9.127238E0,1.2041031E1,5.751016E0,4.4337254E0,2.303557E0],"tree_param":{"num_deleted":"14","num_feature":"17","num_nodes":"47","size_leaf_vector":"0"}},{"base_weights":[-0E0,-1.6360572E-1,9.880839E-2,-3.6631426E-1,-0E0,-0E0,2.4738428E-1,-0E0,-5.121401E-1,1.8450393E-1,-5.8943722E-2,-9.988529E-2,1.2910547E-3,3.046165E-1,-0E0,5.390807E-2,-0E0,-0E0,-6.725991E-1,3.0413067E-1,-0E0,-2.2483027E-1,-0E0,-0E0,-2.501293E-1,1.176622E-1,-0E0,3.7518257E-1,-0E0,-7.4788445E-1,-0E0,-0E0,3.8409537E-1,-0E0,-3.559233E-1,-0E0,-3.8231486E-1,2.1763574E-1,-0E0,-0E0,4.0379316E-1,-0E0,-7.913273E-1,-5.1150817E-1,-0E0,-0E0,-4.3423152E-1,-0E0,2.7667937E-1,-0E0,5.176029E-1],"categories":[],"categories_nodes":[],"categories_segments":[],"categories_sizes":[],"default_left":[1,1,1,1,1,1,1,1,1,1,1,1,1,1,1,1,1,0,1,1,1,1,1,0,1,1,1,1,1,1,0,1,1,1,1,0,1,1,1,1,1,1,1,1,1,1,1,1,1,1,1],"id":31,"left_children":[1,3,5,7,-1,11,-1,-1,17,-1,-1,23,-1,-1,-1,-1,-1,-1,29,-1,-1,-1,-1,-1,35,-1,-1,-1,-1,-1,-1,-1,-1,-1,-1,-1,-1,-1,-1,-1,-1,-1,-1,-1,-1,-1,-1,-1,-1,-1,-1],"loss_changes":[2.1196961E0,2.1282792E0,1.3018125E0,2.1031504E0,4.3202877E-1,1.3753033E-1,5.6856894E-1,1.1745186E-2,1.5884957E0,5.2110493E-1,3.9384827E-1,5.504429E-1,2.672761E-1,5.264075E-1,0E0,0E0,0E0,0E0,1.0810556E0,1.8472153E-1,0E0,5.282279E-1,0E0,0E0,6.7908317E-1,4.7671503E-1,0E0,2.9193377E-1,0E0,1.256733E-1,0E0,0E0,0E0,0E0,2.3044306E-1,0E0,1.7203045E-1,3.581488E-1,0E0,0E0,3.7901616E-1,0E0,0E0,0E0,0E0,0E0,0E0,0E0,0E0,0E0,0E0],"parents":[2147483647,0,0,1,1,2,2,3,3,4,4,5,5,6,6,7,7,8,8,9,9,10,10,11,11,12,12,13,13,18,18,19,19,21,21,24,24,25,25,27,27,29,29,34,34,36,36,37,37,40,40],"right_children":[2,4,6,8,-1,12,-1,-1,18,-1,-1,24,-1,-1,-1,-1,-1,-1,30,-1,-1,-1,-1,-1,36,-1,-1,-1,-1,-1,-1,-1,-1,-1,-1,-1,-1,-1,-1,-1,-1,-1,-1,-1,-1,-1,-1,-1,-1,-1,-1],"split_conditions":[2.55E-2,8.5E0,5E-1,1.9499999E-2,-0E0,5.5E-2,2.7212271E-2,-0E0,7.5E-2,2.0295432E-2,-6.4838096E-3,1.5E-2,1.4201601E-4,3.3507816E-2,-0E0,5.9298873E-3,-0E0,-0E0,4.025E0,3.3454373E-2,-0E0,-2.4731329E-2,-0E0,-0E0,4.7500002E-1,1.2942842E-2,-0E0,4.127008E-2,-0E0,-8.226729E-2,-0E0,-0E0,4.225049E-2,-0E0,-3.915156E-2,-0E0,-4.2054635E-2,2.393993E-2,-0E0,-0E0,4.4417247E-2,-0E0,-8.7046005E-2,-5.6265898E-2,-0E0,-0E0,-4.7765467E-2,-0E0,3.043473E-2,-0E0,5.693632E-2],"split_indices":[5,1,0,4,1,10,3,8,10,2147483647,2147483647,10,10,2147483647,2147483647,2147483647,2147483647,0,4,2147483647,2147483647,2147483647,2147483647,0,4,2147483647,2147483647,2147483647,2147483647,8,0,2147483647,2147483647,2147483647,2147483647,0,12,2147483647,2147483647,2147483647,2147483647,2147483647,2147483647,2147483647,2147483647,2147483647,2147483647,2147483647,2147483647,2147483647,2147483647],"split_type":[0,0,0,0,0,0,0,0,0,0,0,0,0,0,0,0,0,0,0,0,0,0,0,0,0,0,0,0,0,0,0,0,0,0,0,0,0,0,0,0,0,0,0,0,0,0,0,0,0,0,0],"sum_hessian":[1.1909719E2,5.41298E1,6.496739E1,2.5857681E1,2.8272118E1,3.4171783E1,3.0795607E1,5.0988097E0,2.0758873E1,9.692866E0,1.857925E1,1.2780899E1,2.1390886E1,2.609769E1,4.6979156E0,3.0415912E0,2.0572183E0,5.6321177E0,1.5126755E1,8.569206E0,1.12366E0,8.13721E0,1.04420395E1,2.7853029E0,9.995596E0,1.8308424E1,3.0824614E0,2.0602678E1,5.495013E0,1.3976158E1,1.1505971E0,2.3175619E0,6.2516446E0,1.321528E0,6.8156824E0,1.6429988E0,8.352597E0,1.4708297E1,3.600127E0,1.1623759E0,1.9440302E1,1.3985176E0,1.2577641E1,3.6649663E0,3.150716E0,1.1903467E0,7.16225E0,1.3104388E0,1.3397859E1,6.585849E0,1.2854453E1],"tree_param":{"num_deleted":"32","num_feature":"17","num_nodes":"51","size_leaf_vector":"0"}},{"base_weights":[-0E0,-1.5977529E-1,1.5571268E-1,-2.717887E-1,6.602409E-2,-0E0,2.809885E-1,-3.5715023E-1,-0E0,-0E0,3.259329E-1,-1.8618824E-2,-0E0,-0E0,3.4157968E-1,-4.2516682E-1,-0E0,-0E0,3.7076473E-2,3.6544707E-1,-0E0,-1.4909357E-1,-0E0,1.7472729E-1,-0E0,-0E0,5.469173E-1,-4.3166533E-1,-0E0,7.452748E-2,-0E0,-0E0,-2.9707128E-1,-0E0,2.915116E-1,4.0477246E-2,-0E0,-0E0,5.792924E-1,-0E0,-4.1511357E-1,-0E0,3.4970105E-1,-0E0,2.3829389E-1,-1.3459269E-3,-0E0,6.032696E-1,-0E0],"categories":[],"categories_nodes":[],"categories_segments":[],"categories_sizes":[],"default_left":[1,1,1,1,1,1,1,1,1,1,1,1,1,0,1,1,0,1,1,1,1,1,1,1,1,1,1,1,1,1,1,1,1,1,1,1,1,1,1,1,1,1,1,1,1,1,1,1,1],"id":32,"left_children":[1,3,5,7,-1,-1,13,15,-1,-1,-1,-1,-1,-1,25,-1,-1,-1,-1,-1,-1,-1,-1,-1,-1,-1,-1,-1,-1,-1,-1,-1,-1,-1,-1,-1,-1,-1,-1,-1,-1,-1,-1,-1,-1,-1,-1,-1,-1],"loss_changes":[2.9945467E0,2.3867598E0,1.1825906E0,1.9423842E0,4.9508873E-1,4.877157E-3,8.694658E-1,1.5935402E0,1.0026043E-2,0E0,5.1229E-3,2.3266982E-1,2.4476442E-1,0E0,1.0580788E0,7.388115E-3,0E0,0E0,1.9188479E-2,0E0,0E0,4.4957358E-1,0E0,2.869095E-1,0E0,1.6922068E-2,1.3731432E-1,0E0,0E0,0E0,0E0,0E0,2.5829613E-1,0E0,1.0225952E-1,4.4891292E-1,7.328216E-6,0E0,1.0201931E-2,0E0,0E0,0E0,0E0,0E0,0E0,0E0,0E0,0E0,0E0],"parents":[2147483647,0,0,1,1,2,2,3,3,4,4,5,5,6,6,7,7,8,8,10,10,11,11,12,12,14,14,15,15,18,18,21,21,23,23,25,25,26,26,32,32,34,34,35,35,36,36,38,38],"right_children":[2,4,6,8,-1,-1,14,16,-1,-1,-1,-1,-1,-1,26,-1,-1,-1,-1,-1,-1,-1,-1,-1,-1,-1,-1,-1,-1,-1,-1,-1,-1,-1,-1,-1,-1,-1,-1,-1,-1,-1,-1,-1,-1,-1,-1,-1,-1],"split_conditions":[6.1499998E-2,1.11450984E5,6.5E0,2.6775E1,7.2626495E-3,-0E0,1.05E-2,9.54E2,-0E0,-0E0,3.585262E-2,-2.0480705E-3,-0E0,-0E0,5.5E-2,-4.676835E-2,-0E0,-0E0,4.078412E-3,4.019918E-2,-0E0,-1.6400293E-2,-0E0,1.9220002E-2,-0E0,-0E0,6.0160905E-2,-4.7483187E-2,-0E0,8.198023E-3,-0E0,-0E0,-3.267784E-2,-0E0,3.2066274E-2,4.452497E-3,-0E0,-0E0,6.372216E-2,-0E0,-4.5662493E-2,-0E0,3.8467117E-2,-0E0,2.6212327E-2,-1.4805196E-4,-0E0,6.6359654E-2,-0E0],"split_indices":[6,9,1,12,2,12,5,2,9,2147483647,2147483647,2147483647,2147483647,0,10,12,0,2147483647,2147483647,2147483647,2147483647,2147483647,2147483647,2147483647,